{"learner":{"attributes":{"best_iteration":"359","best_score":"0.4272184491486674","scikit_learn":"{\"_estimator_type\": \"classifier\"}"},"feature_names":[],"feature_types":[],"gradient_booster":{"model":{"cats":{"enc":[],"feature_segments":[],"sorted_idx":[]},"gbtree_model_param":{"num_parallel_tree":"1","num_trees":"1170"},"iteration_indptr":[0,3,6,9,12,15,18,21,24,27,30,33,36,39,42,45,48,51,54,57,60,63,66,69,72,75,78,81,84,87,90,93,96,99,102,105,108,111,114,117,120,123,126,129,132,135,138,141,144,147,150,153,156,159,162,165,168,171,174,177,180,183,186,189,192,195,198,201,204,207,210,213,216,219,222,225,228,231,234,237,240,243,246,249,252,255,258,261,264,267,270,273,276,279,282,285,288,291,294,297,300,303,306,309,312,315,318,321,324,327,330,333,336,339,342,345,348,351,354,357,360,363,366,369,372,375,378,381,384,387,390,393,396,399,402,405,408,411,414,417,420,423,426,429,432,435,438,441,444,447,450,453,456,459,462,465,468,471,474,477,480,483,486,489,492,495,498,501,504,507,510,513,516,519,522,525,528,531,534,537,540,543,546,549,552,555,558,561,564,567,570,573,576,579,582,585,588,591,594,597,600,603,606,609,612,615,618,621,624,627,630,633,636,639,642,645,648,651,654,657,660,663,666,669,672,675,678,681,684,687,690,693,696,699,702,705,708,711,714,717,720,723,726,729,732,735,738,741,744,747,750,753,756,759,762,765,768,771,774,777,780,783,786,789,792,795,798,801,804,807,810,813,816,819,822,825,828,831,834,837,840,843,846,849,852,855,858,861,864,867,870,873,876,879,882,885,888,891,894,897,900,903,906,909,912,915,918,921,924,927,930,933,936,939,942,945,948,951,954,957,960,963,966,969,972,975,978,981,984,987,990,993,996,999,1002,1005,1008,1011,1014,1017,1020,1023,1026,1029,1032,1035,1038,1041,1044,1047,1050,1053,1056,1059,1062,1065,1068,1071,1074,1077,1080,1083,1086,1089,1092,1095,1098,1101,1104,1107,1110,1113,1116,1119,1122,1125,1128,1131,1134,1137,1140,1143,1146,1149,1152,1155,1158,1161,1164,1167,1170],"tree_info":[0,1,2,0,1,2,0,1,2,0,1,2,0,1,2,0,1,2,0,1,2,0,1,2,0,1,2,0,1,2,0,1,2,0,1,2,0,1,2,0,1,2,0,1,2,0,1,2,0,1,2,0,1,2,0,1,2,0,1,2,0,1,2,0,1,2,0,1,2,0,1,2,0,1,2,0,1,2,0,1,2,0,1,2,0,1,2,0,1,2,0,1,2,0,1,2,0,1,2,0,1,2,0,1,2,0,1,2,0,1,2,0,1,2,0,1,2,0,1,2,0,1,2,0,1,2,0,1,2,0,1,2,0,1,2,0,1,2,0,1,2,0,1,2,0,1,2,0,1,2,0,1,2,0,1,2,0,1,2,0,1,2,0,1,2,0,1,2,0,1,2,0,1,2,0,1,2,0,1,2,0,1,2,0,1,2,0,1,2,0,1,2,0,1,2,0,1,2,0,1,2,0,1,2,0,1,2,0,1,2,0,1,2,0,1,2,0,1,2,0,1,2,0,1,2,0,1,2,0,1,2,0,1,2,0,1,2,0,1,2,0,1,2,0,1,2,0,1,2,0,1,2,0,1,2,0,1,2,0,1,2,0,1,2,0,1,2,0,1,2,0,1,2,0,1,2,0,1,2,0,1,2,0,1,2,0,1,2,0,1,2,0,1,2,0,1,2,0,1,2,0,1,2,0,1,2,0,1,2,0,1,2,0,1,2,0,1,2,0,1,2,0,1,2,0,1,2,0,1,2,0,1,2,0,1,2,0,1,2,0,1,2,0,1,2,0,1,2,0,1,2,0,1,2,0,1,2,0,1,2,0,1,2,0,1,2,0,1,2,0,1,2,0,1,2,0,1,2,0,1,2,0,1,2,0,1,2,0,1,2,0,1,2,0,1,2,0,1,2,0,1,2,0,1,2,0,1,2,0,1,2,0,1,2,0,1,2,0,1,2,0,1,2,0,1,2,0,1,2,0,1,2,0,1,2,0,1,2,0,1,2,0,1,2,0,1,2,0,1,2,0,1,2,0,1,2,0,1,2,0,1,2,0,1,2,0,1,2,0,1,2,0,1,2,0,1,2,0,1,2,0,1,2,0,1,2,0,1,2,0,1,2,0,1,2,0,1,2,0,1,2,0,1,2,0,1,2,0,1,2,0,1,2,0,1,2,0,1,2,0,1,2,0,1,2,0,1,2,0,1,2,0,1,2,0,1,2,0,1,2,0,1,2,0,1,2,0,1,2,0,1,2,0,1,2,0,1,2,0,1,2,0,1,2,0,1,2,0,1,2,0,1,2,0,1,2,0,1,2,0,1,2,0,1,2,0,1,2,0,1,2,0,1,2,0,1,2,0,1,2,0,1,2,0,1,2,0,1,2,0,1,2,0,1,2,0,1,2,0,1,2,0,1,2,0,1,2,0,1,2,0,1,2,0,1,2,0,1,2,0,1,2,0,1,2,0,1,2,0,1,2,0,1,2,0,1,2,0,1,2,0,1,2,0,1,2,0,1,2,0,1,2,0,1,2,0,1,2,0,1,2,0,1,2,0,1,2,0,1,2,0,1,2,0,1,2,0,1,2,0,1,2,0,1,2,0,1,2,0,1,2,0,1,2,0,1,2,0,1,2,0,1,2,0,1,2,0,1,2,0,1,2,0,1,2,0,1,2,0,1,2,0,1,2,0,1,2,0,1,2,0,1,2,0,1,2,0,1,2,0,1,2,0,1,2,0,1,2,0,1,2,0,1,2,0,1,2,0,1,2,0,1,2,0,1,2,0,1,2,0,1,2,0,1,2,0,1,2,0,1,2,0,1,2,0,1,2,0,1,2,0,1,2,0,1,2,0,1,2,0,1,2,0,1,2,0,1,2,0,1,2,0,1,2,0,1,2,0,1,2,0,1,2,0,1,2,0,1,2,0,1,2,0,1,2,0,1,2,0,1,2,0,1,2,0,1,2,0,1,2,0,1,2,0,1,2,0,1,2,0,1,2,0,1,2,0,1,2,0,1,2,0,1,2,0,1,2,0,1,2,0,1,2,0,1,2,0,1,2,0,1,2,0,1,2,0,1,2,0,1,2,0,1,2,0,1,2,0,1,2,0,1,2,0,1,2,0,1,2,0,1,2,0,1,2,0,1,2,0,1,2,0,1,2,0,1,2,0,1,2,0,1,2,0,1,2,0,1,2,0,1,2,0,1,2,0,1,2,0,1,2,0,1,2,0,1,2,0,1,2,0,1,2,0,1,2,0,1,2,0,1,2,0,1,2,0,1,2,0,1,2,0,1,2,0,1,2,0,1,2,0,1,2,0,1,2,0,1,2,0,1,2,0,1,2,0,1,2,0,1,2,0,1,2,0,1,2,0,1,2,0,1,2,0,1,2,0,1,2,0,1,2,0,1,2,0,1,2,0,1,2,0,1,2,0,1,2,0,1,2,0,1,2,0,1,2,0,1,2,0,1,2,0,1,2,0,1,2,0,1,2,0,1,2,0,1,2,0,1,2,0,1,2,0,1,2,0,1,2,0,1,2,0,1,2,0,1,2,0,1,2,0,1,2,0,1,2,0,1,2,0,1,2,0,1,2,0,1,2,0,1,2,0,1,2,0,1,2,0,1,2,0,1,2,0,1,2,0,1,2],"trees":[{"base_weights":[-3.71291E-3,-4.1919833E-1,1.0632113E0,-2.5937712E-1,-7.048138E-1,1.1332957E0,2.3076965E-1,1.1766947E-1,-5.369496E-1,-7.3080313E-1,1.6528961E-1,1.1672592E0,8.068465E-1,-1.21950865E-1,6.896556E-1,7.0238765E-3,-1.2785852E-2,-1.0591419E-2,-2.051993E-2,-2.2115663E-2,-2.4590092E-3,2.2131156E-2,-8.823521E-3,2.7221188E-2,3.6270745E-2,-2.4590092E-3,2.6943715E-2,-1.9834703E-2,1.5137626E-2,2.8899096E-2,-2.4590092E-3],"categories":[],"categories_nodes":[],"categories_segments":[],"categories_sizes":[],"default_left":[0,0,0,0,0,0,0,0,0,0,0,0,0,0,0,0,0,0,0,0,0,0,0,0,0,0,0,0,0,0,0],"id":0,"left_children":[1,3,5,7,9,11,13,15,17,19,21,23,25,27,29,-1,-1,-1,-1,-1,-1,-1,-1,-1,-1,-1,-1,-1,-1,-1,-1],"loss_changes":[2.3920244E2,1.7544823E1,8.561966E0,2.629041E1,3.2586365E0,6.02005E-1,2.1882644E0,6.8820524E0,3.6666908E0,4.9858093E-1,1.489755E0,2.4758911E-1,1.4008789E0,3.1038435E0,1.3036437E0,0E0,0E0,0E0,0E0,0E0,0E0,0E0,0E0,0E0,0E0,0E0,0E0,0E0,0E0,0E0,0E0],"parents":[2147483647,0,0,1,1,2,2,3,3,4,4,5,5,6,6,7,7,8,8,9,9,10,10,11,11,12,12,13,13,14,14],"right_children":[2,4,6,8,10,12,14,16,18,20,22,24,26,28,30,-1,-1,-1,-1,-1,-1,-1,-1,-1,-1,-1,-1,-1,-1,-1,-1],"split_conditions":[5.6559384E-1,4.4050545E-1,4.08326E-1,5.26322E-1,3.702996E-1,3.1874087E-2,1.21099E-2,3.992222E-1,6.366945E-1,4.2704308E-1,3.3301377E-1,3.5435948E-1,3.2942705E-2,6.1213076E-1,1.8300539E-2,7.0238765E-3,-1.2785852E-2,-1.0591419E-2,-2.051993E-2,-2.2115663E-2,-2.4590092E-3,2.2131156E-2,-8.823521E-3,2.7221188E-2,3.6270745E-2,-2.4590092E-3,2.6943715E-2,-1.9834703E-2,1.5137626E-2,2.8899096E-2,-2.4590092E-3],"split_indices":[6,4,5,5,6,4,4,7,5,0,0,2,4,6,4,0,0,0,0,0,0,0,0,0,0,0,0,0,0,0,0],"split_type":[0,0,0,0,0,0,0,0,0,0,0,0,0,0,0,0,0,0,0,0,0,0,0,0,0,0,0,0,0,0,0],"sum_hessian":[5.375999E2,3.8735995E2,1.5023997E2,2.4959996E2,1.3775998E2,1.3823997E2,1.1999998E1,1.0607999E2,1.4351997E2,1.3391998E2,3.8399994E0,1.2287998E2,1.5359998E1,7.199999E0,4.799999E0,8.783999E1,1.8239998E1,6.527999E1,7.823999E1,1.3247998E2,1.4399998E0,1.4399998E0,2.3999996E0,2.0159998E1,1.02719986E2,1.4399998E0,1.3919998E1,3.8399994E0,3.3599994E0,3.3599994E0,1.4399998E0],"tree_param":{"num_deleted":"0","num_feature":"9","num_nodes":"31","size_leaf_vector":"1"}},{"base_weights":[-8.632277E-3,-6.0323906E-1,1.1932532E0,-1.8486166E-2,5.7904746E-2,1.8549984E0,7.295112E-1,1.9354232E-2,-1.3238492E-2,1.9495307E0,1.327923E-1,8.5542655E-1,-1.36692375E-2,2.08593E-2,6.1776828E-2,1.6476618E-2,-1.0286017E-2,2.73355E-2,-5.7681166E-3,-1.545684E-2,1.4705401E-2],"categories":[],"categories_nodes":[],"categories_segments":[],"categories_sizes":[],"default_left":[0,0,0,0,0,0,0,0,0,0,0,0,0,0,0,0,0,0,0,0,0],"id":1,"left_children":[1,3,5,-1,7,9,11,-1,-1,13,15,17,19,-1,-1,-1,-1,-1,-1,-1,-1],"loss_changes":[2.4617513E2,2.0112457E0,3.3635803E1,0E0,1.8520457E0,7.2839203E0,6.4391136E0,0E0,0E0,4.6007996E0,8.7838686E-1,3.6071396E0,3.0160532E0,0E0,0E0,0E0,0E0,0E0,0E0,0E0,0E0],"parents":[2147483647,0,0,1,1,2,2,4,4,5,5,6,6,9,9,10,10,11,11,12,12],"right_children":[2,4,6,-1,8,10,12,-1,-1,14,16,18,20,-1,-1,-1,-1,-1,-1,-1,-1],"split_conditions":[3.2164478E-1,1.09768525E-1,2.7448088E-1,-1.8486166E-2,2.2201797E-1,3.9518803E-1,2.5517437E-1,1.9354232E-2,-1.3238492E-2,4.633034E-1,4.9637097E-1,4.434816E-1,3.3832404E-1,2.08593E-2,6.1776828E-2,1.6476618E-2,-1.0286017E-2,2.73355E-2,-5.7681166E-3,-1.545684E-2,1.4705401E-2],"split_indices":[4,7,5,0,5,6,6,0,0,4,4,5,5,0,0,0,0,0,0,0,0],"split_type":[0,0,0,0,0,0,0,0,0,0,0,0,0,0,0,0,0,0,0,0,0],"sum_hessian":[3.4246262E2,2.2944685E2,1.1301577E2,2.251001E2,4.3467603E0,4.53305E1,6.768527E1,1.8628974E0,2.483863E0,4.2846638E1,2.483863E0,5.7749817E1,9.935452E0,4.036278E0,3.881036E1,1.2419316E0,1.2419316E0,5.495547E1,2.794346E0,4.967726E0,4.967726E0],"tree_param":{"num_deleted":"0","num_feature":"9","num_nodes":"21","size_leaf_vector":"1"}},{"base_weights":[-1.5649874E-3,-4.9295336E-1,7.051854E-1,-7.0342696E-1,-1.389119E-1,3.7697938E-1,9.51428E-1,-6.4156574E-1,-2.449479E-2,-4.2967728E-1,7.312098E-2,4.1749218E-1,-4.651723E-1,9.715514E-1,-6.4594955E-3,4.5478465E-3,-1.9997802E-2,-1.5424117E-2,7.194002E-3,2.140377E-2,-3.822178E-4,1.632493E-2,6.3854847E-3,-1.7913189E-2,-2.7376607E-3,3.2031458E-2,2.0624522E-2],"categories":[],"categories_nodes":[],"categories_segments":[],"categories_sizes":[],"default_left":[0,0,0,0,0,0,0,0,0,0,0,0,0,0,0,0,0,0,0,0,0,0,0,0,0,0,0],"id":2,"left_children":[1,3,5,7,9,11,13,15,-1,17,19,21,23,25,-1,-1,-1,-1,-1,-1,-1,-1,-1,-1,-1,-1,-1],"loss_changes":[1.8571619E2,2.3407654E1,1.7366402E1,8.581543E-1,7.358997E0,3.4582605E0,3.1358414E0,2.728901E0,0E0,2.9655848E0,3.8350286E0,2.2640114E0,1.8546677E-1,2.6182632E0,0E0,0E0,0E0,0E0,0E0,0E0,0E0,0E0,0E0,0E0,0E0,0E0,0E0],"parents":[2147483647,0,0,1,1,2,2,3,3,4,4,5,5,6,6,7,7,9,9,10,10,11,11,12,12,13,13],"right_children":[2,4,6,8,10,12,14,16,-1,18,20,22,24,26,-1,-1,-1,-1,-1,-1,-1,-1,-1,-1,-1,-1,-1],"split_conditions":[4.09406E-1,3.103465E-1,5.7150006E-1,7.9740286E-1,3.9114988E-1,6.488784E-1,9.986395E-2,5.31588E-4,-2.449479E-2,4.036124E-1,3.4436437E-1,4.9181303E-1,4.6947688E-1,3.682775E-1,-6.4594955E-3,4.5478465E-3,-1.9997802E-2,-1.5424117E-2,7.194002E-3,2.140377E-2,-3.822178E-4,1.632493E-2,6.3854847E-3,-1.7913189E-2,-2.7376607E-3,3.2031458E-2,2.0624522E-2],"split_indices":[5,5,5,6,4,6,4,4,0,5,5,3,0,3,0,0,0,0,0,0,0,0,0,0,0,0,0],"split_type":[0,0,0,0,0,0,0,0,0,0,0,0,0,0,0,0,0,0,0,0,0,0,0,0,0,0,0],"sum_hessian":[5.327589E2,3.1443887E2,2.1832007E2,1.9658467E2,1.178542E2,9.466977E1,1.2365031E2,1.3137845E2,6.5206215E1,4.926692E1,6.858728E1,9.0805695E1,3.864072E0,1.2171827E2,1.932036E0,3.864072E0,1.2751438E2,4.395382E1,5.313099E0,7.2451353E0,6.1342144E1,5.5063026E1,3.574267E1,2.415045E0,1.4490271E0,8.887366E1,3.2844612E1],"tree_param":{"num_deleted":"0","num_feature":"9","num_nodes":"27","size_leaf_vector":"1"}},{"base_weights":[2.2617017E-3,-4.7192144E-1,9.4685155E-1,-5.5980545E-1,-1.3874239E-2,1.0616108E0,4.4480804E-1,-7.423457E-1,-4.5498028E-1,-2.122286E-2,7.3367454E-2,1.079293E0,-1.5116941E-4,6.5537405E-1,1.2570028E-1,-2.2104804E-3,-2.2515137E-2,-1.2028069E-2,-2.3701338E-2,8.423084E-3,-5.0710775E-3,2.4705503E-2,3.4159344E-2,-2.522657E-4,2.2221448E-2,1.2886818E-2,-1.1529803E-2],"categories":[],"categories_nodes":[],"categories_segments":[],"categories_sizes":[],"default_left":[0,0,0,0,0,0,0,0,0,0,0,0,0,0,0,0,0,0,0,0,0,0,0,0,0,0,0],"id":3,"left_children":[1,3,5,7,9,11,13,15,17,-1,19,21,-1,23,25,-1,-1,-1,-1,-1,-1,-1,-1,-1,-1,-1,-1],"loss_changes":[2.4465346E2,1.4631401E1,1.0045517E1,5.500145E0,3.6561434E0,2.7943573E0,2.3155031E0,5.432205E-1,3.2394562E0,0E0,2.753147E0,1.2705231E0,0E0,1.2106953E0,2.5554643E0,0E0,0E0,0E0,0E0,0E0,0E0,0E0,0E0,0E0,0E0,0E0,0E0],"parents":[2147483647,0,0,1,1,2,2,3,3,4,4,5,5,6,6,7,7,8,8,10,10,11,11,13,13,14,14],"right_children":[2,4,6,8,10,12,14,16,18,-1,20,22,-1,24,26,-1,-1,-1,-1,-1,-1,-1,-1,-1,-1,-1,-1],"split_conditions":[5.4130024E-1,4.3017033E-1,4.1949207E-1,1.9416268E-1,1.3163913E-3,1.09768525E-1,3.990113E-1,7.2431125E-2,7.1151155E-1,-2.122286E-2,5.0726765E-1,6.921526E-1,-1.5116941E-4,3.509491E-4,3.944442E-1,-2.2104804E-3,-2.2515137E-2,-1.2028069E-2,-2.3701338E-2,8.423084E-3,-5.0710775E-3,2.4705503E-2,3.4159344E-2,-2.522657E-4,2.2221448E-2,1.2886818E-2,-1.1529803E-2],"split_indices":[3,3,8,3,4,7,5,5,5,0,5,3,0,7,2,0,0,0,0,0,0,0,0,0,0,0,0],"split_type":[0,0,0,0,0,0,0,0,0,0,0,0,0,0,0,0,0,0,0,0,0,0,0,0,0,0,0],"sum_hessian":[5.4421533E2,3.6266052E2,1.8155481E2,3.0409305E2,5.856748E1,1.4686842E2,3.4686386E1,1.0870855E2,1.9538449E2,5.749694E0,5.2817783E1,1.4446178E2,2.406657E0,2.0262337E1,1.4424047E1,1.4313701E0,1.07277176E2,1.701384E2,2.52461E1,2.837859E1,2.4439196E1,3.000979E1,1.1445198E2,2.4110012E0,1.7851336E1,9.137776E0,5.286271E0],"tree_param":{"num_deleted":"0","num_feature":"9","num_nodes":"27","size_leaf_vector":"1"}},{"base_weights":[3.2590276E-3,-1.8401721E-2,1.188292E0,1.7779943E0,6.8924296E-1,1.8836322E0,1.8845771E-1,8.624496E-1,2.5243548E-1,2.6032839E-2,5.9131186E-2,-1.2190379E-2,2.342498E-2,4.45749E-3,2.989605E-2,-1.2840721E-2,2.0579638E-2],"categories":[],"categories_nodes":[],"categories_segments":[],"categories_sizes":[],"default_left":[0,0,0,0,0,0,0,0,0,0,0,0,0,0,0,0,0],"id":4,"left_children":[1,-1,3,5,7,9,11,13,15,-1,-1,-1,-1,-1,-1,-1,-1],"loss_changes":[2.5391057E2,0E0,3.377266E1,8.69191E0,4.779188E0,2.765686E0,1.8918083E0,4.339157E0,6.2431316E0,0E0,0E0,0E0,0E0,0E0,0E0,0E0,0E0],"parents":[2147483647,0,0,2,2,3,3,4,4,5,5,6,6,7,7,8,8],"right_children":[2,-1,4,6,8,10,12,14,16,-1,-1,-1,-1,-1,-1,-1,-1],"split_conditions":[1.09768525E-1,-1.8401721E-2,2.8574872E-1,3.702996E-1,1.9722389E-1,3.7388602E-1,2.1966176E-1,3.608214E-1,3.926137E-1,2.6032839E-2,5.9131186E-2,-1.2190379E-2,2.342498E-2,4.45749E-3,2.989605E-2,-1.2840721E-2,2.0579638E-2],"split_indices":[7,0,5,6,3,7,8,2,7,0,0,0,0,0,0,0,0],"split_type":[0,0,0,0,0,0,0,0,0,0,0,0,0,0,0,0,0],"sum_hessian":[3.454681E2,2.2754436E2,1.1792375E2,5.287781E1,6.504594E1,4.9409145E1,3.468666E0,4.587912E1,1.9166819E1,4.7802043E0,4.462894E1,1.8874832E0,1.5811828E0,7.588154E0,3.8290966E1,7.4643273E0,1.1702491E1],"tree_param":{"num_deleted":"0","num_feature":"9","num_nodes":"17","size_leaf_vector":"1"}},{"base_weights":[7.157811E-4,-4.8676148E-1,5.941218E-1,-6.7854273E-1,-1.1567017E-1,7.6479715E-1,-3.3232413E-2,-2.998541E-1,-7.129404E-1,-5.0886804E-1,4.167646E-2,8.949896E-1,1.0660287E-1,-5.373873E-1,1.1671862E-1,1.4305722E-2,-1.2601006E-2,-1.2904255E-2,-2.2120867E-2,7.0371537E-4,-1.9122154E-2,4.197791E-3,-1.2483276E-2,3.1026982E-2,2.040553E-2,1.7036349E-2,-3.5975513E-3,-4.238045E-4,-1.9815182E-2,8.625472E-3,-1.5994225E-2],"categories":[],"categories_nodes":[],"categories_segments":[],"categories_sizes":[],"default_left":[0,0,0,0,0,0,0,0,0,0,0,0,0,0,0,0,0,0,0,0,0,0,0,0,0,0,0,0,0,0,0],"id":5,"left_children":[1,3,5,7,9,11,13,15,17,19,21,23,25,27,29,-1,-1,-1,-1,-1,-1,-1,-1,-1,-1,-1,-1,-1,-1,-1,-1],"loss_changes":[1.5938934E2,2.1450035E1,2.6633354E1,2.3813705E0,6.4724317E0,1.6648392E1,4.153015E0,1.9099592E0,9.3920135E-1,2.0592575E0,3.4493487E0,4.1716614E0,3.5582674E0,8.012345E-1,4.873151E0,0E0,0E0,0E0,0E0,0E0,0E0,0E0,0E0,0E0,0E0,0E0,0E0,0E0,0E0,0E0,0E0],"parents":[2147483647,0,0,1,1,2,2,3,3,4,4,5,5,6,6,7,7,8,8,9,9,10,10,11,11,12,12,13,13,14,14],"right_children":[2,4,6,8,10,12,14,16,18,20,22,24,26,28,30,-1,-1,-1,-1,-1,-1,-1,-1,-1,-1,-1,-1,-1,-1,-1,-1],"split_conditions":[4.1771698E-1,3.3959582E-1,4.9181303E-1,3.1422192E-1,2.7090374E-1,1.4730412E-1,3.534191E-1,3.6485127E-1,2.0256247E-1,3.5229948E-1,3.2224151E-1,3.731729E-1,1.1032218E-1,5.218437E-1,4.1738668E-1,1.4305722E-2,-1.2601006E-2,-1.2904255E-2,-2.2120867E-2,7.0371537E-4,-1.9122154E-2,4.197791E-3,-1.2483276E-2,3.1026982E-2,2.040553E-2,1.7036349E-2,-3.5975513E-3,-4.238045E-4,-1.9815182E-2,8.625472E-3,-1.5994225E-2],"split_indices":[8,8,3,0,1,4,0,2,6,8,1,3,3,3,2,0,0,0,0,0,0,0,0,0,0,0,0,0,0,0,0],"split_type":[0,0,0,0,0,0,0,0,0,0,0,0,0,0,0,0,0,0,0,0,0,0,0,0,0,0,0,0,0,0,0],"sum_hessian":[5.49002E2,3.0150134E2,2.4750067E2,1.9822794E2,1.032734E2,1.9439525E2,5.3105434E1,1.7315573E1,1.8091235E2,2.8877232E1,7.439617E1,1.6199289E2,3.240236E1,1.1581883E1,4.1523552E1,1.9225279E0,1.5393044E1,1.5860855E1,1.650515E2,5.775599E0,2.3101631E1,6.182223E1,1.257394E1,9.596852E1,6.602436E1,1.0175196E1,2.2227161E1,2.4183834E0,9.1635E0,3.3323093E1,8.200458E0],"tree_param":{"num_deleted":"0","num_feature":"9","num_nodes":"31","size_leaf_vector":"1"}},{"base_weights":[-8.512996E-3,-4.6843192E-1,9.017345E-1,-6.7738754E-1,-2.4864718E-1,3.862191E-1,1.0514557E0,-7.4603397E-1,-5.426053E-1,-2.9845184E-1,5.478181E-1,1.4194246E-1,6.782513E-1,1.075163E0,5.180391E-1,-2.2599086E-2,-8.2585495E-3,-1.4798429E-3,-1.9085499E-2,-1.1661732E-2,-9.719803E-5,-1.4755486E-2,2.2906378E-2,-4.211331E-3,2.1052197E-2,2.4492806E-2,1.0105147E-3,2.3847591E-2,3.3543035E-2,-7.0234495E-3,2.421746E-2],"categories":[],"categories_nodes":[],"categories_segments":[],"categories_sizes":[],"default_left":[0,0,0,0,0,0,0,0,0,0,0,0,0,0,0,0,0,0,0,0,0,0,0,0,0,0,0,0,0,0,0],"id":6,"left_children":[1,3,5,7,9,11,13,15,17,19,21,23,25,27,29,-1,-1,-1,-1,-1,-1,-1,-1,-1,-1,-1,-1,-1,-1,-1,-1],"loss_changes":[2.2442003E2,1.618631E1,1.34826355E1,1.2789001E0,7.1109314E0,2.905541E0,1.1990662E0,1.9606018E-1,2.972454E0,4.4087257E0,2.7664423E0,3.9196374E0,1.6559439E0,6.998749E-1,1.8941905E0,0E0,0E0,0E0,0E0,0E0,0E0,0E0,0E0,0E0,0E0,0E0,0E0,0E0,0E0,0E0,0E0],"parents":[2147483647,0,0,1,1,2,2,3,3,4,4,5,5,6,6,7,7,8,8,9,9,10,10,11,11,12,12,13,13,14,14],"right_children":[2,4,6,8,10,12,14,16,18,20,22,24,26,28,30,-1,-1,-1,-1,-1,-1,-1,-1,-1,-1,-1,-1,-1,-1,-1,-1],"split_conditions":[5.322233E-1,2.690978E-1,5.8540815E-1,1.9722389E-1,5.698188E-1,5.0140778E-3,2.9760892E-2,3.5066915E-1,2.1105959E-1,7.849347E-2,3.1422192E-1,6.399455E-1,3.579485E-2,6.528828E-1,3.5328346E-1,-2.2599086E-2,-8.2585495E-3,-1.4798429E-3,-1.9085499E-2,-1.1661732E-2,-9.719803E-5,-1.4755486E-2,2.2906378E-2,-4.211331E-3,2.1052197E-2,2.4492806E-2,1.0105147E-3,2.3847591E-2,3.3543035E-2,-7.0234495E-3,2.421746E-2],"split_indices":[3,3,6,3,6,7,7,1,3,7,0,3,7,6,0,0,0,0,0,0,0,0,0,0,0,0,0,0,0,0,0],"split_type":[0,0,0,0,0,0,0,0,0,0,0,0,0,0,0,0,0,0,0,0,0,0,0,0,0,0,0,0,0,0,0],"sum_hessian":[5.3406024E2,3.5511658E2,1.7894366E2,1.8097574E2,1.7414082E2,4.107954E1,1.3786412E2,1.1690123E2,6.407451E1,1.6448077E2,9.660054E0,2.317792E1,1.790162E1,1.310252E2,6.8389196E0,1.145325E2,2.3687296E0,1.0460627E1,5.3613884E1,1.2572017E2,3.8760605E1,1.4400406E0,8.220014E0,1.5905569E1,7.27235E0,1.4521934E1,3.3796864E0,2.0000647E1,1.1102455E2,1.9522245E0,4.886695E0],"tree_param":{"num_deleted":"0","num_feature":"9","num_nodes":"31","size_leaf_vector":"1"}},{"base_weights":[2.492281E-3,-5.933187E-1,1.1438918E0,-1.8316174E-2,2.3420602E-1,1.7173588E0,7.52364E-1,2.3968747E-2,-1.2646167E-2,1.5695127E-2,1.7390964E0,2.6075935E-1,9.636762E-1,2.6111694E-2,5.3621393E-2,3.866352E-2,3.2169304E-3,3.7514433E-2,2.0211631E-2],"categories":[],"categories_nodes":[],"categories_segments":[],"categories_sizes":[],"default_left":[0,0,0,0,0,0,0,0,0,0,0,0,0,0,0,0,0,0,0],"id":7,"left_children":[1,3,5,-1,7,9,11,-1,-1,-1,13,15,17,-1,-1,-1,-1,-1,-1],"loss_changes":[2.3749638E2,3.4128342E0,2.5600677E1,0E0,2.3367062E0,3.3140564E-1,7.327736E0,0E0,0E0,0E0,3.959961E-1,3.5398521E0,3.3699646E0,0E0,0E0,0E0,0E0,0E0,0E0],"parents":[2147483647,0,0,1,1,2,2,4,4,5,5,6,6,10,10,11,11,12,12],"right_children":[2,4,6,-1,8,10,12,-1,-1,-1,14,16,18,-1,-1,-1,-1,-1,-1],"split_conditions":[3.2164478E-1,1.09768525E-1,2.2201797E-1,-1.8316174E-2,2.2201797E-1,2.6503187E-1,4.4481587E-1,2.3968747E-2,-1.2646167E-2,1.5695127E-2,2.9734057E-1,2.614844E-1,4.8214114E-1,2.6111694E-2,5.3621393E-2,3.866352E-2,3.2169304E-3,3.7514433E-2,2.0211631E-2],"split_indices":[4,7,5,0,5,7,4,0,0,0,0,0,4,0,0,0,0,0,0],"split_type":[0,0,0,0,0,0,0,0,0,0,0,0,0,0,0,0,0,0,0],"sum_hessian":[3.4723145E2,2.2845699E2,1.1877445E2,2.2405667E2,4.400308E0,4.681649E1,7.195797E1,2.2468438E0,2.1534643E0,1.2851008E0,4.5531387E1,2.2303736E1,4.9654232E1,3.399249E0,4.213214E1,1.9372809E0,2.0366455E1,2.3297335E1,2.6356895E1],"tree_param":{"num_deleted":"0","num_feature":"9","num_nodes":"19","size_leaf_vector":"1"}},{"base_weights":[-1.9802423E-2,-4.2598012E-1,8.159775E-1,-6.848913E-1,-7.753087E-2,5.518483E-1,1.0090879E0,-6.9908005E-1,-2.7720913E-1,-5.160023E-1,-1.7885497E-2,3.215201E-1,6.93477E-1,8.870804E-1,3.291017E-2,-2.4827917E-3,-2.1093333E-2,1.4229134E-2,-1.6843835E-2,-1.9548576E-2,8.451602E-3,-2.690992E-3,5.2805822E-3,2.0097306E-2,1.4311303E-3,9.467833E-3,2.5421562E-2,2.7568173E-2,2.8919643E-3],"categories":[],"categories_nodes":[],"categories_segments":[],"categories_sizes":[],"default_left":[0,0,0,0,0,0,0,0,0,0,0,0,0,0,0,0,0,0,0,0,0,0,0,0,0,0,0,0,0],"id":8,"left_children":[1,3,5,7,9,11,13,15,17,19,21,23,25,27,-1,-1,-1,-1,-1,-1,-1,-1,-1,-1,-1,-1,-1,-1,-1],"loss_changes":[1.8378654E2,3.2812614E1,8.474579E0,1.0144348E0,4.0816555E0,2.288494E0,1.11083984E-1,4.4165802E-1,2.12096E0,2.2060218E0,1.9475961E0,2.9423702E0,2.4549885E0,1.1093903E0,0E0,0E0,0E0,0E0,0E0,0E0,0E0,0E0,0E0,0E0,0E0,0E0,0E0,0E0,0E0],"parents":[2147483647,0,0,1,1,2,2,3,3,4,4,5,5,6,6,7,7,8,8,9,9,10,10,11,11,12,12,13,13],"right_children":[2,4,6,8,10,12,14,16,18,20,22,24,26,28,-1,-1,-1,-1,-1,-1,-1,-1,-1,-1,-1,-1,-1,-1,-1],"split_conditions":[4.656436E-1,3.076282E-1,6.011555E-1,4.2683905E-1,3.354515E-1,2.7764873E-3,6.8839985E-1,2.6848194E-1,1.8458003E-3,3.9616182E-1,4.8214114E-1,7.014086E-4,3.767988E-1,6.0280096E-2,3.291017E-2,-2.4827917E-3,-2.1093333E-2,1.4229134E-2,-1.6843835E-2,-1.9548576E-2,8.451602E-3,-2.690992E-3,5.2805822E-3,2.0097306E-2,1.4311303E-3,9.467833E-3,2.5421562E-2,2.7568173E-2,2.8919643E-3],"split_indices":[5,5,5,8,8,7,5,0,4,4,4,7,2,4,0,0,0,0,0,0,0,0,0,0,0,0,0,0,0],"split_type":[0,0,0,0,0,0,0,0,0,0,0,0,0,0,0,0,0,0,0,0,0,0,0,0,0,0,0,0,0],"sum_hessian":[5.393605E2,3.632946E2,1.7606592E2,2.078721E2,1.5542249E2,7.598887E1,1.0007704E2,2.0019003E2,7.6820664E0,1.7694395E1,1.3772809E2,3.017917E1,4.58097E1,4.6557243E1,5.35198E1,1.4407558E0,1.9874927E2,1.9247506E0,5.757316E0,1.5279884E1,2.4145107E0,1.0089735E2,3.6830738E1,1.2644428E1,1.7534742E1,1.4140897E1,3.1668804E1,4.459805E1,1.9591911E0],"tree_param":{"num_deleted":"0","num_feature":"9","num_nodes":"29","size_leaf_vector":"1"}},{"base_weights":[-3.708943E-3,-4.863121E-1,8.0289817E-1,-6.498678E-1,-2.9257137E-1,4.4683635E-1,3.1555116E-2,-5.977428E-1,-2.35693E-2,4.4318374E-2,-4.4529024E-1,6.790411E-1,1.7784806E-1,-2.0199904E-2,-1.39215095E-2,-1.3776026E-2,1.0304877E-2,-1.8298762E-2,-1.0300608E-2,9.051748E-3,2.271758E-2,-8.608991E-3,8.929422E-3],"categories":[],"categories_nodes":[],"categories_segments":[],"categories_sizes":[],"default_left":[0,0,0,0,0,0,0,0,0,0,0,0,0,0,0,0,0,0,0,0,0,0,0],"id":9,"left_children":[1,3,5,7,9,11,-1,13,-1,15,17,19,21,-1,-1,-1,-1,-1,-1,-1,-1,-1,-1],"loss_changes":[2.0671304E2,1.0337593E1,1.7149933E1,7.9958344E-1,7.9379673E0,5.0967274E0,0E0,1.0393105E0,0E0,7.526374E0,1.5696602E0,1.084053E0,2.3159099E0,0E0,0E0,0E0,0E0,0E0,0E0,0E0,0E0,0E0,0E0],"parents":[2147483647,0,0,1,1,2,2,3,3,4,4,5,5,7,7,9,9,10,10,11,11,12,12],"right_children":[2,4,6,8,10,12,-1,14,-1,16,18,20,22,-1,-1,-1,-1,-1,-1,-1,-1,-1,-1],"split_conditions":[4.938697E-1,2.690978E-1,6.528828E-1,3.8711625E-1,5.236894E-1,3.990113E-1,3.1555116E-2,1.9722389E-1,-2.35693E-2,2.4310283E-1,4.1045812E-1,3.583966E-1,3.6790904E-1,-2.0199904E-2,-1.39215095E-2,-1.3776026E-2,1.0304877E-2,-1.8298762E-2,-1.0300608E-2,9.051748E-3,2.271758E-2,-8.608991E-3,8.929422E-3],"split_indices":[3,3,6,2,5,5,0,3,0,5,6,2,2,0,0,0,0,0,0,0,0,0,0],"split_type":[0,0,0,0,0,0,0,0,0,0,0,0,0,0,0,0,0,0,0,0,0,0,0],"sum_hessian":[5.290229E2,3.3123682E2,1.9778606E2,1.7833356E2,1.5290324E2,8.253286E1,1.152532E2,1.3276634E2,4.556722E1,4.791503E1,1.0498821E2,4.3476902E1,3.9055958E1,8.223547E1,5.0530865E1,1.7659319E1,3.0255714E1,3.823677E1,6.675144E1,8.298804E0,3.5178097E1,7.7174234E0,3.1338533E1],"tree_param":{"num_deleted":"0","num_feature":"9","num_nodes":"23","size_leaf_vector":"1"}},{"base_weights":[-8.073575E-3,-6.03227E-1,1.0556521E0,-1.823054E-2,3.4531273E-3,1.5591586E0,6.454657E-1,4.930155E-2,4.4398108E-1,1.731274E-1,9.196928E-1,-1.2466097E-2,3.2381244E-2,1.3829377E-2,-1.3286086E-2,3.755148E-2,1.8215464E-2],"categories":[],"categories_nodes":[],"categories_segments":[],"categories_sizes":[],"default_left":[0,0,0,0,0,0,0,0,0,0,0,0,0,0,0,0,0],"id":10,"left_children":[1,3,5,-1,-1,7,9,-1,11,13,15,-1,-1,-1,-1,-1,-1],"loss_changes":[2.1959492E2,7.8214264E-1,2.4696045E1,0E0,0E0,4.4516144E0,8.944727E0,0E0,3.3123622E0,5.0003843E0,3.829998E0,0E0,0E0,0E0,0E0,0E0,0E0],"parents":[2147483647,0,0,1,1,2,2,5,5,6,6,8,8,9,9,10,10],"right_children":[2,4,6,-1,-1,8,10,-1,12,14,16,-1,-1,-1,-1,-1,-1],"split_conditions":[1.09768525E-1,7.849347E-2,2.7448088E-1,-1.823054E-2,3.4531273E-3,3.681455E-1,4.0497726E-1,4.930155E-2,2.1966176E-1,2.538888E-1,3.0546114E-1,-1.2466097E-2,3.2381244E-2,1.3829377E-2,-1.3286086E-2,3.755148E-2,1.8215464E-2],"split_indices":[7,7,5,0,0,6,7,0,8,3,0,0,0,0,0,0,0],"split_type":[0,0,0,0,0,0,0,0,0,0,0,0,0,0,0,0,0],"sum_hessian":[3.4486166E2,2.2141379E2,1.23447876E2,2.2020134E2,1.2124562E0,5.4162266E1,6.928561E1,4.9918404E1,4.243863E0,2.6049084E1,4.3236523E1,1.9508723E0,2.2929907E0,1.7924652E1,8.124433E0,1.9506603E1,2.3729918E1],"tree_param":{"num_deleted":"0","num_feature":"9","num_nodes":"17","size_leaf_vector":"1"}},{"base_weights":[4.1872575E-3,-4.8029122E-1,5.990211E-1,-6.572861E-1,-1.1315145E-1,6.919203E-1,-2.8733835E-1,-4.9939668E-1,-7.135858E-1,-2.3645183E-2,-6.7653835E-1,7.8600425E-1,1.4066465E-1,-1.0709629E-1,-5.3678787E-1,1.0863834E-3,-1.6039412E-2,9.752687E-3,-2.1789825E-2,1.2586203E-3,-1.0745267E-2,-2.2241402E-2,-5.6159543E-3,2.7837737E-2,1.3586365E-2,1.41873425E-2,-3.0837844E-3,-8.537098E-3,1.7218389E-2,4.059066E-3,-2.1660212E-2],"categories":[],"categories_nodes":[],"categories_segments":[],"categories_sizes":[],"default_left":[0,0,0,0,0,0,0,0,0,0,0,0,0,0,0,0,0,0,0,0,0,0,0,0,0,0,0,0,0,0,0],"id":11,"left_children":[1,3,5,7,9,11,13,15,17,19,21,23,25,27,29,-1,-1,-1,-1,-1,-1,-1,-1,-1,-1,-1,-1,-1,-1,-1,-1],"loss_changes":[1.5454105E2,1.9130943E1,2.0019432E1,1.4143982E0,4.892706E0,1.1204597E1,1.0009928E0,1.0708675E0,2.1486664E0,1.8811055E0,2.8349686E-1,8.38015E0,2.7199159E0,1.9661981E0,1.2959592E0,0E0,0E0,0E0,0E0,0E0,0E0,0E0,0E0,0E0,0E0,0E0,0E0,0E0,0E0,0E0,0E0],"parents":[2147483647,0,0,1,1,2,2,3,3,4,4,5,5,6,6,7,7,8,8,9,9,10,10,11,11,12,12,13,13,14,14],"right_children":[2,4,6,8,10,12,14,16,18,20,22,24,26,28,30,-1,-1,-1,-1,-1,-1,-1,-1,-1,-1,-1,-1,-1,-1,-1,-1],"split_conditions":[4.1771698E-1,3.3959582E-1,5.912267E-1,2.9364046E-1,6.921526E-1,7.849347E-2,4.039836E-1,4.2464146E-1,1.1383848E-1,3.2300994E-1,6.2043807E-3,4.3017033E-1,1.18825994E-1,4.2338094E-1,4.132219E-1,1.0863834E-3,-1.6039412E-2,9.752687E-3,-2.1789825E-2,1.2586203E-3,-1.0745267E-2,-2.2241402E-2,-5.6159543E-3,2.7837737E-2,1.3586365E-2,1.41873425E-2,-3.0837844E-3,-8.537098E-3,1.7218389E-2,4.059066E-3,-2.1660212E-2],"split_indices":[8,8,3,6,3,7,2,7,3,1,7,3,3,0,0,0,0,0,0,0,0,0,0,0,0,0,0,0,0,0,0],"split_type":[0,0,0,0,0,0,0,0,0,0,0,0,0,0,0,0,0,0,0,0,0,0,0,0,0,0,0,0,0,0,0],"sum_hessian":[5.342595E2,2.9454886E2,2.397107E2,1.9820544E2,9.63434E1,2.1716866E2,2.2542038E1,5.4692825E1,1.4351262E2,8.403464E1,1.2308763E1,1.8514392E2,3.2024746E1,1.3916136E1,8.625901E0,3.37558E0,5.1317245E1,1.4420924E0,1.4207053E2,7.098879E1,1.3045844E1,1.0413784E1,1.8949779E0,1.2857991E2,5.6564003E1,1.3144265E1,1.888048E1,1.1501184E1,2.4149513E0,1.9218264E0,6.7040753E0],"tree_param":{"num_deleted":"0","num_feature":"9","num_nodes":"31","size_leaf_vector":"1"}},{"base_weights":[-5.8305886E-4,-4.7558877E-1,7.797623E-1,-6.4065385E-1,-2.80855E-1,4.465487E-1,1.0214376E0,-4.7063136E-1,-6.8804187E-1,1.19079895E-1,-4.0734786E-1,6.7941755E-1,2.5718176E-1,3.1335197E-2,2.061515E-1,-1.6297074E-2,6.5528476E-3,-2.2262245E-2,-1.6755518E-2,2.2765195E-2,-9.3277935E-3,-6.4230636E-3,-1.4687625E-2,2.6387006E-2,-4.5571807E-3,4.65052E-3,2.9692486E-2,2.000921E-2,-7.482338E-3],"categories":[],"categories_nodes":[],"categories_segments":[],"categories_sizes":[],"default_left":[0,0,0,0,0,0,0,0,0,0,0,0,0,0,0,0,0,0,0,0,0,0,0,0,0,0,0,0,0],"id":12,"left_children":[1,3,5,7,9,11,13,15,17,19,21,23,25,-1,27,-1,-1,-1,-1,-1,-1,-1,-1,-1,-1,-1,-1,-1,-1],"loss_changes":[1.9800215E2,1.0493439E1,1.5820847E1,1.1178665E0,7.8450584E0,3.6506062E0,1.9734726E0,2.2281961E0,5.497284E-1,1.0636286E1,1.7595253E0,6.5055943E0,3.5476198E0,0E0,1.1001875E0,0E0,0E0,0E0,0E0,0E0,0E0,0E0,0E0,0E0,0E0,0E0,0E0,0E0,0E0],"parents":[2147483647,0,0,1,1,2,2,3,3,4,4,5,5,6,6,7,7,8,8,9,9,10,10,11,11,12,12,14,14],"right_children":[2,4,6,8,10,12,14,16,18,20,22,24,26,-1,28,-1,-1,-1,-1,-1,-1,-1,-1,-1,-1,-1,-1,-1,-1],"split_conditions":[4.9181303E-1,2.6226076E-1,7.098392E-1,3.6248258E-1,3.7093523E-1,4.3012145E-1,3.2746036E-2,3.6043212E-1,1.9416268E-1,3.8635272E-1,3.771976E-1,2.823902E-1,4.243747E-1,3.1335197E-2,2.314801E-1,-1.6297074E-2,6.5528476E-3,-2.2262245E-2,-1.6755518E-2,2.2765195E-2,-9.3277935E-3,-6.4230636E-3,-1.4687625E-2,2.6387006E-2,-4.5571807E-3,4.65052E-3,2.9692486E-2,2.000921E-2,-7.482338E-3],"split_indices":[3,3,3,2,5,8,7,2,3,7,2,1,2,0,8,0,0,0,0,0,0,0,0,0,0,0,0,0,0],"split_type":[0,0,0,0,0,0,0,0,0,0,0,0,0,0,0,0,0,0,0,0,0,0,0,0,0,0,0,0,0],"sum_hessian":[5.3217535E2,3.310511E2,2.0112427E2,1.7793527E2,1.5311581E2,8.574696E1,1.153773E2,4.116647E1,1.367688E2,3.680557E1,1.1631024E2,3.729572E1,4.8451244E1,1.1192905E2,3.4482515E0,3.7433792E1,3.7326765E0,9.317171E1,4.3597095E1,1.4487083E1,2.2318483E1,3.5797382E1,8.051286E1,3.0012003E1,7.283718E0,4.3584526E1,4.8667207E0,1.4835296E0,1.9647219E0],"tree_param":{"num_deleted":"0","num_feature":"9","num_nodes":"29","size_leaf_vector":"1"}},{"base_weights":[4.68533E-3,-5.873297E-1,1.0431157E0,-1.8147008E-2,1.7525873E-1,1.4573778E0,7.033911E-1,2.2818768E-2,-2.3407832E-1,1.5068347E0,-1.0658331E-2,4.3061268E-2,8.550197E-1,3.0365207E-3,-1.2354056E-2,4.594297E-2,4.3093697E-3,-7.1931677E-3,3.1554934E-2,2.6945129E-2,1.0746006E-3],"categories":[],"categories_nodes":[],"categories_segments":[],"categories_sizes":[],"default_left":[0,0,0,0,0,0,0,0,0,0,0,0,0,0,0,0,0,0,0,0,0],"id":13,"left_children":[1,3,5,-1,7,9,11,-1,13,15,-1,17,19,-1,-1,-1,-1,-1,-1,-1,-1],"loss_changes":[2.1442793E2,3.0826874E0,1.6798447E1,0E0,1.562683E0,5.5673294E0,7.1237106E0,0E0,2.8989258E-1,1.6185532E0,0E0,4.363069E0,2.0219116E0,0E0,0E0,0E0,0E0,0E0,0E0,0E0,0E0],"parents":[2147483647,0,0,1,1,2,2,4,4,5,5,6,6,8,8,9,9,11,11,12,12],"right_children":[2,4,6,-1,8,10,12,-1,14,16,-1,18,20,-1,-1,-1,-1,-1,-1,-1,-1],"split_conditions":[2.6503187E-1,7.849347E-2,2.7448088E-1,-1.8147008E-2,1.6218928E-1,3.681455E-1,3.465768E-1,2.2818768E-2,3.3420506E-1,3.5916296E-1,-1.0658331E-2,4.130286E-1,4.434816E-1,3.0365207E-3,-1.2354056E-2,4.594297E-2,4.3093697E-3,-7.1931677E-3,3.1554934E-2,2.6945129E-2,1.0746006E-3],"split_indices":[7,7,5,0,5,6,5,0,6,1,0,7,5,0,0,0,0,0,0,0,0],"split_type":[0,0,0,0,0,0,0,0,0,0,0,0,0,0,0,0,0,0,0,0,0],"sum_hessian":[3.4679922E2,2.2115305E2,1.2564619E2,2.1637439E2,4.778655E0,5.5130226E1,7.051596E1,1.6133364E0,3.1653185E0,5.3830223E1,1.3000041E0,1.3408231E1,5.710773E1,1.2456801E0,1.9196385E0,5.2754883E1,1.0753402E0,1.1067497E1,2.3407338E0,5.415853E1,2.9491975E0],"tree_param":{"num_deleted":"0","num_feature":"9","num_nodes":"21","size_leaf_vector":"1"}},{"base_weights":[7.579058E-3,-4.591929E-1,6.714937E-1,-6.660428E-1,-1.1170319E-1,2.3728257E-1,8.265975E-1,-6.875008E-1,3.9204046E-2,-3.8359487E-1,4.1053806E-2,3.0799654E-1,-4.0249512E-1,7.1997166E-1,3.0591365E-2,-2.091208E-2,1.0147845E-2,1.9797744E-2,-1.8009286E-2,-1.5767172E-2,2.8043315E-3,4.503558E-3,-1.1961708E-2,2.9646237E-3,1.9349363E-2,-1.4334506E-2,-2.6157403E-3,1.4800559E-2,2.4956604E-2],"categories":[],"categories_nodes":[],"categories_segments":[],"categories_sizes":[],"default_left":[0,0,0,0,0,0,0,0,0,0,0,0,0,0,0,0,0,0,0,0,0,0,0,0,0,0,0,0,0],"id":14,"left_children":[1,3,5,7,9,11,13,15,17,19,21,23,25,27,-1,-1,-1,-1,-1,-1,-1,-1,-1,-1,-1,-1,-1,-1,-1],"loss_changes":[1.6509428E2,2.2410759E1,1.4615128E1,2.9914322E0,4.9137874E0,2.8060763E0,2.5941086E0,2.1022415E0,3.067826E0,2.929109E0,3.7248538E0,3.739162E0,1.0876584E-1,2.317051E0,0E0,0E0,0E0,0E0,0E0,0E0,0E0,0E0,0E0,0E0,0E0,0E0,0E0,0E0,0E0],"parents":[2147483647,0,0,1,1,2,2,3,3,4,4,5,5,6,6,7,7,8,8,9,9,10,10,11,11,12,12,13,13],"right_children":[2,4,6,8,10,12,14,16,18,20,22,24,26,28,-1,-1,-1,-1,-1,-1,-1,-1,-1,-1,-1,-1,-1,-1,-1],"split_conditions":[4.1243777E-1,3.076282E-1,5.0726765E-1,4.1771698E-1,2.805468E-1,4.1738668E-1,6.8839985E-1,3.5066915E-1,3.8921016E-1,4.319111E-1,3.2300994E-1,4.7928223E-1,5.526717E-1,3.7707573E-1,3.0591365E-2,-2.091208E-2,1.0147845E-2,1.9797744E-2,-1.8009286E-2,-1.5767172E-2,2.8043315E-3,4.503558E-3,-1.1961708E-2,2.9646237E-3,1.9349363E-2,-1.4334506E-2,-2.6157403E-3,1.4800559E-2,2.4956604E-2],"split_indices":[5,5,5,8,1,2,5,1,2,8,1,8,6,2,0,0,0,0,0,0,0,0,0,0,0,0,0,0,0],"split_type":[0,0,0,0,0,0,0,0,0,0,0,0,0,0,0,0,0,0,0,0,0,0,0,0,0,0,0,0,0],"sum_hessian":[5.307447E2,3.1182285E2,2.1892186E2,1.9489258E2,1.1693027E2,5.8284626E1,1.6063724E2,1.8916225E2,5.7303286E0,4.1519215E1,7.541106E1,5.2950634E1,5.333991E0,1.06540436E2,5.4096798E1,1.8773148E2,1.4307666E0,2.8916936E0,2.8386347E0,3.1918545E1,9.600669E0,6.095329E1,1.44577675E1,3.346875E1,1.9481882E1,3.8894396E0,1.4445516E0,3.700878E1,6.9531654E1],"tree_param":{"num_deleted":"0","num_feature":"9","num_nodes":"29","size_leaf_vector":"1"}},{"base_weights":[-8.838791E-3,-4.5869276E-1,8.3620125E-1,-5.9907216E-1,-2.2373655E-1,6.034082E-1,3.0752782E-2,-4.8604426E-1,-6.7953527E-1,3.7081954E-1,-3.3484805E-1,7.2995406E-1,2.5841933E-1,-2.0742087E-2,-6.2873303E-3,-1.7372716E-3,-2.0585865E-2,-4.4009387E-3,2.3029512E-2,-1.8306343E-2,-7.43205E-3,2.789969E-2,1.2987366E-2,-2.3904918E-3,1.8874202E-2],"categories":[],"categories_nodes":[],"categories_segments":[],"categories_sizes":[],"default_left":[0,0,0,0,0,0,0,0,0,0,0,0,0,0,0,0,0,0,0,0,0,0,0,0,0],"id":15,"left_children":[1,3,5,7,9,11,-1,13,15,17,19,21,23,-1,-1,-1,-1,-1,-1,-1,-1,-1,-1,-1,-1],"loss_changes":[2.0303424E2,1.136174E1,7.54068E0,1.6485443E0,8.841194E0,3.546133E0,0E0,5.191593E0,4.7608948E-1,4.4768972E0,2.528284E0,3.2838364E0,3.1218305E0,0E0,0E0,0E0,0E0,0E0,0E0,0E0,0E0,0E0,0E0,0E0,0E0],"parents":[2147483647,0,0,1,1,2,2,3,3,4,4,5,5,7,7,8,8,9,9,10,10,11,11,12,12],"right_children":[2,4,6,8,10,12,-1,14,16,18,20,22,24,-1,-1,-1,-1,-1,-1,-1,-1,-1,-1,-1,-1],"split_conditions":[5.352444E-1,3.2705528E-1,7.2009945E-1,4.5023745E-1,3.8513044E-1,2.7795756E-1,3.0752782E-2,3.8034502E-2,2.6503187E-1,2.3281781E-1,3.656397E-1,4.1771698E-1,2.9411536E-1,-2.0742087E-2,-6.2873303E-3,-1.7372716E-3,-2.0585865E-2,-4.4009387E-3,2.3029512E-2,-1.8306343E-2,-7.43205E-3,2.789969E-2,1.2987366E-2,-2.3904918E-3,1.8874202E-2],"split_indices":[3,3,6,4,8,1,0,4,7,5,3,8,1,0,0,0,0,0,0,0,0,0,0,0,0],"split_type":[0,0,0,0,0,0,0,0,0,0,0,0,0,0,0,0,0,0,0,0,0,0,0,0,0],"sum_hessian":[5.320884E2,3.47536E2,1.8455234E2,2.1658385E2,1.3095218E2,8.454817E1,1.0000416E2,9.299404E1,1.23589806E2,2.0251156E1,1.1070102E2,6.1041553E1,2.350662E1,5.2497887E1,4.0496155E1,1.4129083E0,1.22176895E2,9.062648E0,1.1188508E1,2.5161367E1,8.553965E1,3.520367E1,2.5837885E1,1.27047615E1,1.0801859E1],"tree_param":{"num_deleted":"0","num_feature":"9","num_nodes":"25","size_leaf_vector":"1"}},{"base_weights":[-5.789141E-3,-5.756689E-1,1.0110466E0,-1.8065307E-2,1.9603501E-1,1.420095E0,6.866764E-1,-2.95308E-1,2.2695245E-2,1.4674146E0,-7.7326345E-4,7.628971E-1,1.4055327E-1,-1.3674819E-2,3.3694012E-3,4.5511723E-2,6.071498E-3,7.8719907E-4,2.3998644E-2,2.7711783E-2,-5.169344E-3],"categories":[],"categories_nodes":[],"categories_segments":[],"categories_sizes":[],"default_left":[0,0,0,0,0,0,0,0,0,0,0,0,0,0,0,0,0,0,0,0,0],"id":16,"left_children":[1,3,5,-1,7,9,11,13,-1,15,-1,17,19,-1,-1,-1,-1,-1,-1,-1,-1],"loss_changes":[1.987282E2,4.613693E0,1.53678665E1,0E0,2.4409995E0,3.70092E0,2.8329544E0,3.7902066E-1,0E0,2.9497986E0,0E0,1.6649055E0,2.5792007E0,0E0,0E0,0E0,0E0,0E0,0E0,0E0,0E0],"parents":[2147483647,0,0,1,1,2,2,4,4,5,5,6,6,7,7,9,9,11,11,12,12],"right_children":[2,4,6,-1,8,10,12,14,-1,16,-1,18,20,-1,-1,-1,-1,-1,-1,-1,-1],"split_conditions":[3.581952E-1,1.09768525E-1,3.3959582E-1,-1.8065307E-2,4.5818284E-1,3.702996E-1,2.655095E-1,4.055552E-1,2.2695245E-2,3.4529322E-1,-7.7326345E-4,3.4918633E-1,3.5633484E-1,-1.3674819E-2,3.3694012E-3,4.5511723E-2,6.071498E-3,7.8719907E-4,2.3998644E-2,2.7711783E-2,-5.169344E-3],"split_indices":[4,7,8,0,3,6,6,8,0,1,0,2,2,0,0,0,0,0,0,0,0],"split_type":[0,0,0,0,0,0,0,0,0,0,0,0,0,0,0,0,0,0,0,0,0],"sum_hessian":[3.4094135E2,2.1876796E2,1.2217338E2,2.1171524E2,7.052727E0,5.2539837E1,6.9633545E1,4.0102344E0,3.0424929E0,5.08604E1,1.6794347E0,6.0756954E1,8.876587E0,2.7923565E0,1.2178779E0,4.8748184E1,2.1122153E0,2.9918208E0,5.7765133E1,1.9764923E0,6.900095E0],"tree_param":{"num_deleted":"0","num_feature":"9","num_nodes":"21","size_leaf_vector":"1"}},{"base_weights":[7.1092853E-3,-4.60674E-1,5.6805885E-1,-6.298404E-1,-1.4891098E-1,7.1202856E-1,1.9056194E-2,-6.4278144E-1,1.5506087E-1,-7.537363E-2,-6.5500003E-1,8.145478E-1,1.81302E-1,-5.1873094E-1,1.7791227E-1,-1.6973726E-2,-2.1398913E-2,9.961747E-3,-2.5503868E-3,2.2748502E-2,-3.6168555E-3,-1.5707479E-3,-2.1690866E-2,2.7779754E-2,1.9568136E-2,1.2139527E-2,-9.358015E-3,-2.1788744E-2,-3.63824E-3,1.10365115E-2,-1.5573924E-2],"categories":[],"categories_nodes":[],"categories_segments":[],"categories_sizes":[],"default_left":[0,0,0,0,0,0,0,0,0,0,0,0,0,0,0,0,0,0,0,0,0,0,0,0,0,0,0,0,0,0,0],"id":17,"left_children":[1,3,5,7,9,11,13,15,17,19,21,23,25,27,29,-1,-1,-1,-1,-1,-1,-1,-1,-1,-1,-1,-1,-1,-1,-1,-1],"loss_changes":[1.4085751E2,1.5343952E1,1.9278969E1,2.023941E0,3.8312588E0,1.037233E1,4.512313E0,6.092911E-1,1.9303355E-1,3.5637102E0,4.9916172E-1,2.3213882E0,3.716281E0,9.062681E-1,5.5783954E0,0E0,0E0,0E0,0E0,0E0,0E0,0E0,0E0,0E0,0E0,0E0,0E0,0E0,0E0,0E0,0E0],"parents":[2147483647,0,0,1,1,2,2,3,3,4,4,5,5,6,6,7,7,8,8,9,9,10,10,11,11,12,12,13,13,14,14],"right_children":[2,4,6,8,10,12,14,16,18,20,22,24,26,28,30,-1,-1,-1,-1,-1,-1,-1,-1,-1,-1,-1,-1,-1,-1,-1,-1],"split_conditions":[4.1771698E-1,3.3959582E-1,4.9181303E-1,3.5066915E-1,6.921526E-1,1.4730412E-1,3.534191E-1,3.7276053E-1,3.560965E-1,3.4730336E-1,3.5547182E-1,3.656397E-1,4.3734464E-1,3.0092138E-1,4.1738668E-1,-1.6973726E-2,-2.1398913E-2,9.961747E-3,-2.5503868E-3,2.2748502E-2,-3.6168555E-3,-1.5707479E-3,-2.1690866E-2,2.7779754E-2,1.9568136E-2,1.2139527E-2,-9.358015E-3,-2.1788744E-2,-3.63824E-3,1.10365115E-2,-1.5573924E-2],"split_indices":[8,8,3,1,3,4,0,0,2,2,2,3,8,1,2,0,0,0,0,0,0,0,0,0,0,0,0,0,0,0,0],"split_type":[0,0,0,0,0,0,0,0,0,0,0,0,0,0,0,0,0,0,0,0,0,0,0,0,0,0,0,0,0,0,0],"sum_hessian":[5.348015E2,2.9171515E2,2.4308635E2,1.8844328E2,1.03271866E2,1.9234825E2,5.0738094E1,1.8556483E2,2.87844E0,9.1172905E1,1.209896E1,1.6075987E2,3.1588383E1,1.1053262E1,3.9684834E1,9.30234E1,9.2541435E1,1.436334E0,1.4421058E0,3.876503E0,8.72964E1,1.4067492E0,1.0692211E1,9.251713E1,6.8242744E1,2.186637E1,9.722013E0,6.7177515E0,4.3355107E0,3.155664E1,8.128194E0],"tree_param":{"num_deleted":"0","num_feature":"9","num_nodes":"31","size_leaf_vector":"1"}},{"base_weights":[1.7207878E-3,-4.2597654E-1,8.209268E-1,-6.243851E-1,-2.3638715E-1,9.5316213E-1,4.5796037E-1,-6.7992085E-1,-5.141481E-1,-5.839884E-2,-5.00513E-1,9.714399E-1,-7.679599E-4,6.4559627E-1,1.7926356E-1,-1.1598475E-3,-2.0630708E-2,-6.674562E-3,-1.7957862E-2,1.7350881E-3,-1.8188119E-2,-1.7401874E-2,-9.801327E-3,1.6173087E-2,2.9901259E-2,2.057527E-2,1.5058104E-3,-7.2229194E-4,2.0397967E-2],"categories":[],"categories_nodes":[],"categories_segments":[],"categories_sizes":[],"default_left":[0,0,0,0,0,0,0,0,0,0,0,0,0,0,0,0,0,0,0,0,0,0,0,0,0,0,0,0,0],"id":18,"left_children":[1,3,5,7,9,11,13,15,17,19,21,23,-1,25,27,-1,-1,-1,-1,-1,-1,-1,-1,-1,-1,-1,-1,-1,-1],"loss_changes":[1.8805379E2,1.311689E1,8.3997345E0,7.01561E-1,8.523563E0,2.422348E0,2.5557203E0,5.268059E-1,1.3845768E0,7.0286293E0,8.213024E-1,9.001541E-1,0E0,6.8795776E-1,2.2499423E0,0E0,0E0,0E0,0E0,0E0,0E0,0E0,0E0,0E0,0E0,0E0,0E0,0E0,0E0],"parents":[2147483647,0,0,1,1,2,2,3,3,4,4,5,5,6,6,7,7,8,8,9,9,10,10,11,11,13,13,14,14],"right_children":[2,4,6,8,10,12,14,16,18,20,22,24,-1,26,28,-1,-1,-1,-1,-1,-1,-1,-1,-1,-1,-1,-1,-1,-1],"split_conditions":[5.352444E-1,2.6226076E-1,3.2032728E-1,1.9416268E-1,5.831595E-1,1.09768525E-1,4.4875336E-1,7.2431125E-2,2.1105959E-1,4.4481587E-1,3.656397E-1,5.31588E-4,-7.679599E-4,4.871423E-1,4.7445214E-1,-1.1598475E-3,-2.0630708E-2,-6.674562E-3,-1.7957862E-2,1.7350881E-3,-1.8188119E-2,-1.7401874E-2,-9.801327E-3,1.6173087E-2,2.9901259E-2,2.057527E-2,1.5058104E-3,-7.2229194E-4,2.0397967E-2],"split_indices":[3,3,5,3,5,7,8,5,3,4,3,4,0,0,0,0,0,0,0,0,0,0,0,0,0,0,0,0,0],"split_type":[0,0,0,0,0,0,0,0,0,0,0,0,0,0,0,0,0,0,0,0,0,0,0,0,0,0,0,0,0],"sum_hessian":[5.3472766E2,3.5162738E2,1.831003E2,1.7069684E2,1.8093054E2,1.330146E2,5.0085705E1,1.10074936E2,6.0621902E1,1.0882022E2,7.211033E1,1.305835E2,2.4310935E0,2.91462E1,2.0939505E1,1.3892242E0,1.0868571E2,1.4427405E1,4.6194496E1,9.051188E1,1.8308338E1,4.7864967E1,2.424536E1,8.444062E0,1.2213944E2,2.7158531E1,1.9876693E0,1.5568483E1,5.3710217E0],"tree_param":{"num_deleted":"0","num_feature":"9","num_nodes":"29","size_leaf_vector":"1"}},{"base_weights":[5.221767E-3,-5.8618253E-1,9.4481444E-1,-1.7985428E-2,-3.196688E-1,1.3585492E0,6.3939905E-1,4.803157E-1,-1.6364107E-2,1.3957579E0,7.043371E-3,2.6970115E-1,8.1465805E-1,-1.0117233E-2,3.3774775E-2,4.2550676E-2,4.231783E-3,1.8960904E-2,-2.9758501E-3,3.2111695E-3,2.8010381E-2],"categories":[],"categories_nodes":[],"categories_segments":[],"categories_sizes":[],"default_left":[0,0,0,0,0,0,0,0,0,0,0,0,0,0,0,0,0,0,0,0,0],"id":19,"left_children":[1,3,5,-1,7,9,11,13,-1,15,-1,17,19,-1,-1,-1,-1,-1,-1,-1,-1],"loss_changes":[1.9551317E2,5.755997E-1,1.630523E1,0E0,2.5072296E0,2.0486298E0,4.968918E0,2.1042283E0,0E0,1.3539124E0,0E0,3.7048233E0,4.433838E0,0E0,0E0,0E0,0E0,0E0,0E0,0E0,0E0],"parents":[2147483647,0,0,1,1,2,2,4,4,5,5,6,6,7,7,9,9,11,11,12,12],"right_children":[2,4,6,-1,8,10,12,14,-1,16,-1,18,20,-1,-1,-1,-1,-1,-1,-1,-1],"split_conditions":[3.1357804E-1,5.598126E-2,2.523822E-1,-1.7985428E-2,1.9956453E-1,3.702996E-1,4.4481587E-1,2.1542451E-1,-1.6364107E-2,3.684495E-1,7.043371E-3,2.2563049E-1,3.6248258E-1,-1.0117233E-2,3.3774775E-2,4.2550676E-2,4.231783E-3,1.8960904E-2,-2.9758501E-3,3.2111695E-3,2.8010381E-2],"split_indices":[4,4,5,0,5,6,4,8,0,8,0,6,2,0,0,0,0,0,0,0,0],"split_type":[0,0,0,0,0,0,0,0,0,0,0,0,0,0,0,0,0,0,0,0,0],"sum_hessian":[3.4984875E2,2.1493756E2,1.3491121E2,2.0350807E2,1.1429478E1,5.583094E1,7.908027E1,2.2678008E0,9.161676E0,5.3807316E1,2.0236244E0,2.6248846E1,5.283142E1,1.2112622E0,1.0565386E0,5.2727226E1,1.0800871E0,1.2882441E1,1.3366406E1,7.8802423E0,4.495118E1],"tree_param":{"num_deleted":"0","num_feature":"9","num_nodes":"21","size_leaf_vector":"1"}},{"base_weights":[-1.1995662E-2,-4.5756108E-1,6.212206E-1,-6.4321136E-1,-1.3942689E-1,3.139995E-1,8.622976E-1,-7.215549E-1,-5.601709E-1,-3.5819046E-2,-5.551035E-1,4.0448487E-1,-6.722536E-2,9.306189E-1,7.0113266E-1,-1.2048853E-2,-2.2707736E-2,-3.663211E-3,-1.7589673E-2,-1.8377284E-2,4.263575E-4,-1.9632887E-2,-7.163553E-4,8.915321E-3,1.8885454E-2,9.74657E-3,-7.3339846E-3,2.8741242E-2,1.44970585E-2,1.23978155E-2,2.7295265E-2],"categories":[],"categories_nodes":[],"categories_segments":[],"categories_sizes":[],"default_left":[0,0,0,0,0,0,0,0,0,0,0,0,0,0,0,0,0,0,0,0,0,0,0,0,0,0,0,0,0,0,0],"id":20,"left_children":[1,3,5,7,9,11,13,15,17,19,21,23,25,27,29,-1,-1,-1,-1,-1,-1,-1,-1,-1,-1,-1,-1,-1,-1,-1,-1],"loss_changes":[1.5496097E2,1.8950134E1,1.6531166E1,9.18396E-1,5.1513987E0,3.522173E0,7.4082947E-1,8.4041595E-1,1.1102257E0,2.8130763E0,1.2448258E0,1.7936182E0,1.4897243E0,5.8981323E-1,2.131071E0,0E0,0E0,0E0,0E0,0E0,0E0,0E0,0E0,0E0,0E0,0E0,0E0,0E0,0E0,0E0,0E0],"parents":[2147483647,0,0,1,1,2,2,3,3,4,4,5,5,6,6,7,7,8,8,9,9,10,10,11,11,12,12,13,13,14,14],"right_children":[2,4,6,8,10,12,14,16,18,20,22,24,26,28,30,-1,-1,-1,-1,-1,-1,-1,-1,-1,-1,-1,-1,-1,-1,-1,-1],"split_conditions":[4.09406E-1,3.076282E-1,5.688968E-1,1.99818E-1,5.466688E-1,5.335245E-1,3.5724536E-1,1.9381593E-1,1.8458003E-3,1.2577337E-1,2.7795756E-1,4.0235758E-1,1.6205351E-1,6.0280096E-2,2.4390851E-1,-1.2048853E-2,-2.2707736E-2,-3.663211E-3,-1.7589673E-2,-1.8377284E-2,4.263575E-4,-1.9632887E-2,-7.163553E-4,8.915321E-3,1.8885454E-2,9.74657E-3,-7.3339846E-3,2.8741242E-2,1.44970585E-2,1.23978155E-2,2.7295265E-2],"split_indices":[5,5,5,8,6,6,3,6,4,6,1,0,1,4,1,0,0,0,0,0,0,0,0,0,0,0,0,0,0,0,0],"split_type":[0,0,0,0,0,0,0,0,0,0,0,0,0,0,0,0,0,0,0,0,0,0,0,0,0,0,0,0,0,0,0],"sum_hessian":[5.4722833E2,3.2137137E2,2.2585698E2,2.0229709E2,1.1907428E2,1.003177E2,1.25539276E2,1.001359E2,1.0216118E2,9.618599E1,2.288829E1,8.102504E1,1.929266E1,8.481152E1,4.0727757E1,1.1198467E1,8.893744E1,6.074618E0,9.608656E1,6.7801747E0,8.940581E1,1.9087475E1,3.800816E0,5.6434437E1,2.4590603E1,5.7465377E0,1.3546123E1,7.883771E1,5.9738183E0,1.8370073E1,2.2357681E1],"tree_param":{"num_deleted":"0","num_feature":"9","num_nodes":"31","size_leaf_vector":"1"}},{"base_weights":[-6.4476086E-3,-4.0471867E-1,8.028523E-1,-5.588714E-1,-1.5027945E-1,3.053748E-1,8.95551E-1,-6.8344367E-1,-4.258295E-1,1.9783202E-1,-3.4927344E-1,5.193302E-1,-2.1808785E-1,6.762172E-1,9.5510626E-1,-2.0725591E-2,-4.4314824E-3,-7.6240227E-3,-1.7907826E-2,1.0587394E-2,-2.1777167E-3,-8.309866E-3,-2.0165047E-2,-1.52620785E-2,1.8635571E-2,-1.8966544E-2,2.1525305E-3,2.3790263E-2,4.0121414E-3,2.9078912E-2,1.1656729E-2],"categories":[],"categories_nodes":[],"categories_segments":[],"categories_sizes":[],"default_left":[0,0,0,0,0,0,0,0,0,0,0,0,0,0,0,0,0,0,0,0,0,0,0,0,0,0,0,0,0,0,0],"id":21,"left_children":[1,3,5,7,9,11,13,15,17,19,21,23,25,27,29,-1,-1,-1,-1,-1,-1,-1,-1,-1,-1,-1,-1,-1,-1,-1,-1],"loss_changes":[1.7356815E2,1.40707245E1,7.91687E0,3.427391E0,9.595445E0,3.4075267E0,1.3029327E0,3.5131836E-1,3.1133957E0,2.15007E0,1.8643751E0,2.533379E0,1.1542556E0,2.1294098E0,5.4720306E-1,0E0,0E0,0E0,0E0,0E0,0E0,0E0,0E0,0E0,0E0,0E0,0E0,0E0,0E0,0E0,0E0],"parents":[2147483647,0,0,1,1,2,2,3,3,4,4,5,5,6,6,7,7,8,8,9,9,10,10,11,11,12,12,13,13,14,14],"right_children":[2,4,6,8,10,12,14,16,18,20,22,24,26,28,30,-1,-1,-1,-1,-1,-1,-1,-1,-1,-1,-1,-1,-1,-1,-1,-1],"split_conditions":[5.490146E-1,3.2705528E-1,5.504131E-1,1.9416268E-1,5.0726765E-1,3.990113E-1,6.98258E-1,3.5066915E-1,3.514652E-1,3.9406732E-1,3.0461168E-1,3.509491E-4,4.09406E-1,4.6270692E-1,3.2746036E-2,-2.0725591E-2,-4.4314824E-3,-7.6240227E-3,-1.7907826E-2,1.0587394E-2,-2.1777167E-3,-8.309866E-3,-2.0165047E-2,-1.52620785E-2,1.8635571E-2,-1.8966544E-2,2.1525305E-3,2.3790263E-2,4.0121414E-3,2.9078912E-2,1.1656729E-2],"split_indices":[3,3,6,3,5,5,3,1,0,2,1,7,5,0,7,0,0,0,0,0,0,0,0,0,0,0,0,0,0,0,0],"split_type":[0,0,0,0,0,0,0,0,0,0,0,0,0,0,0,0,0,0,0,0,0,0,0,0,0,0,0,0,0,0,0],"sum_hessian":[5.36487E2,3.5988235E2,1.7660468E2,2.2336162E2,1.3652072E2,2.8413715E1,1.4819095E2,1.1321599E2,1.1014564E2,4.965764E1,8.686308E1,2.017533E1,8.238386E0,3.428361E1,1.1390735E2,1.1138591E2,1.8300796E0,5.6217335E1,5.39283E1,3.1365313E1,1.8292326E1,7.24937E1,1.436939E1,1.4585869E0,1.8716742E1,2.9055607E0,5.3328257E0,2.7830168E1,6.4534426E0,1.1043042E2,3.4769247E0],"tree_param":{"num_deleted":"0","num_feature":"9","num_nodes":"31","size_leaf_vector":"1"}},{"base_weights":[1.3453339E-2,-5.827968E-1,9.206934E-1,-1.7906109E-2,2.9655027E-1,1.3125266E0,5.975632E-1,2.0766946E-2,-9.959232E-3,1.3398962E0,1.8746558E-3,-3.012912E-2,6.590748E-1,4.0842526E-2,3.602004E-3,2.6134083E-2,-1.5336792E-2,6.544686E-3,2.195209E-2],"categories":[],"categories_nodes":[],"categories_segments":[],"categories_sizes":[],"default_left":[0,0,0,0,0,0,0,0,0,0,0,0,0,0,0,0,0,0,0],"id":22,"left_children":[1,3,5,-1,7,9,11,-1,-1,13,-1,15,17,-1,-1,-1,-1,-1,-1],"loss_changes":[1.847858E2,2.7281265E0,1.636734E1,0E0,1.2035235E0,1.982338E0,2.9572124E0,0E0,0E0,1.3866196E0,0E0,3.8040564E0,2.0615826E0,0E0,0E0,0E0,0E0,0E0,0E0],"parents":[2147483647,0,0,1,1,2,2,4,4,5,5,6,6,9,9,11,11,12,12],"right_children":[2,4,6,-1,8,10,12,-1,-1,14,-1,16,18,-1,-1,-1,-1,-1,-1],"split_conditions":[3.1357804E-1,1.09768525E-1,2.8574872E-1,-1.7906109E-2,1.9956453E-1,4.138388E-1,3.284903E-1,2.0766946E-2,-9.959232E-3,3.5916296E-1,1.8746558E-3,2.2134216E-1,3.6248258E-1,4.0842526E-2,3.602004E-3,2.6134083E-2,-1.5336792E-2,6.544686E-3,2.195209E-2],"split_indices":[4,7,5,0,5,6,5,0,0,1,0,6,2,0,0,0,0,0,0],"split_type":[0,0,0,0,0,0,0,0,0,0,0,0,0,0,0,0,0,0,0],"sum_hessian":[3.396081E2,2.05143E2,1.3446507E2,2.0222769E2,2.9153123E0,5.9388115E1,7.5076965E1,1.7268392E0,1.1884731E0,5.8045326E1,1.342788E0,6.7461653E0,6.83308E1,5.692493E1,1.1203947E0,2.0656831E0,4.6804824E0,1.0233736E1,5.809706E1],"tree_param":{"num_deleted":"0","num_feature":"9","num_nodes":"19","size_leaf_vector":"1"}},{"base_weights":[-3.4720364E-3,-4.543144E-1,5.33085E-1,-6.227949E-1,-1.6512501E-1,6.745211E-1,3.283842E-2,-6.3520235E-1,4.921014E-2,-8.955491E-2,-2.146222E-2,7.9351056E-1,-5.520847E-3,1.562456E-1,-4.218737E-1,-1.6365904E-2,-2.0836927E-2,-6.2585296E-3,1.017353E-2,2.4294395E-2,-4.338484E-3,2.5120806E-2,1.5806729E-2,1.1467876E-2,-9.895161E-3,7.1006943E-3,-1.946385E-2,5.225471E-3,-2.1292076E-2],"categories":[],"categories_nodes":[],"categories_segments":[],"categories_sizes":[],"default_left":[0,0,0,0,0,0,0,0,0,0,0,0,0,0,0,0,0,0,0,0,0,0,0,0,0,0,0,0,0],"id":23,"left_children":[1,3,5,7,9,11,13,15,17,19,-1,21,23,25,27,-1,-1,-1,-1,-1,-1,-1,-1,-1,-1,-1,-1,-1,-1],"loss_changes":[1.3335231E2,1.4492325E1,1.7786926E1,1.6064453E0,4.578265E0,1.5878571E1,3.2381525E0,6.088867E-1,3.9611214E-1,5.0344048E0,0E0,1.5108719E0,3.9250898E0,3.080343E0,2.2405345E0,0E0,0E0,0E0,0E0,0E0,0E0,0E0,0E0,0E0,0E0,0E0,0E0,0E0,0E0],"parents":[2147483647,0,0,1,1,2,2,3,3,4,4,5,5,6,6,7,7,8,8,9,9,11,11,12,12,13,13,14,14],"right_children":[2,4,6,8,10,12,14,16,18,20,-1,22,24,26,28,-1,-1,-1,-1,-1,-1,-1,-1,-1,-1,-1,-1,-1,-1],"split_conditions":[4.1771698E-1,3.354515E-1,4.9181303E-1,3.5066915E-1,6.921526E-1,1.4730412E-1,6.548968E-1,3.579381E-1,2.5870767E-1,3.4730336E-1,-2.146222E-2,4.3927923E-1,1.18825994E-1,4.272516E-1,1.8458003E-3,-1.6365904E-2,-2.0836927E-2,-6.2585296E-3,1.017353E-2,2.4294395E-2,-4.338484E-3,2.5120806E-2,1.5806729E-2,1.1467876E-2,-9.895161E-3,7.1006943E-3,-1.946385E-2,5.225471E-3,-2.1292076E-2],"split_indices":[8,8,3,1,3,4,3,0,0,2,0,3,3,2,4,0,0,0,0,0,0,0,0,0,0,0,0,0,0],"split_type":[0,0,0,0,0,0,0,0,0,0,0,0,0,0,0,0,0,0,0,0,0,0,0,0,0,0,0,0,0],"sum_hessian":[5.4926324E2,2.9855527E2,2.5070796E2,1.8792017E2,1.1063509E2,1.9517671E2,5.5531254E1,1.8456721E2,3.3529453E0,9.829853E1,1.2336563E1,1.6596956E2,2.9207155E1,4.419365E1,1.1337606E1,7.757391E1,1.0699331E2,1.9230711E0,1.4298742E0,4.880072E0,9.341846E1,1.4069025E2,2.5279316E1,1.3220672E1,1.5986483E1,4.082061E1,3.3730369E0,3.8208828E0,7.5167236E0],"tree_param":{"num_deleted":"0","num_feature":"9","num_nodes":"29","size_leaf_vector":"1"}},{"base_weights":[1.4329466E-2,-3.8582256E-1,7.910738E-1,-5.4401475E-1,-1.0966684E-1,8.9607865E-1,3.373278E-1,-4.084958E-1,-1.9651297E-2,5.1800523E-2,-3.9755455E-1,9.1026825E-1,4.0499055E-1,8.562828E-3,6.038426E-1,-3.8282413E-3,-2.0937528E-2,2.0538853E-2,-9.00539E-4,-8.074767E-3,-1.7226027E-2,2.163145E-2,2.8414195E-2,2.2619158E-2,-1.9242768E-3,2.2962568E-2,-4.2153685E-3,-1.5501367E-2,2.1649709E-2],"categories":[],"categories_nodes":[],"categories_segments":[],"categories_sizes":[],"default_left":[0,0,0,0,0,0,0,0,0,0,0,0,0,0,0,0,0,0,0,0,0,0,0,0,0,0,0,0,0],"id":24,"left_children":[1,3,5,7,9,11,13,15,-1,17,19,21,23,25,27,-1,-1,-1,-1,-1,-1,-1,-1,-1,-1,-1,-1,-1,-1],"loss_changes":[1.665387E2,1.5390057E1,8.377441E0,3.1118546E0,6.0661926E0,6.580353E-1,3.1350794E0,8.349504E0,0E0,4.380577E0,9.080043E-1,3.1053925E-1,1.0206983E0,2.0324082E0,2.9840722E0,0E0,0E0,0E0,0E0,0E0,0E0,0E0,0E0,0E0,0E0,0E0,0E0,0E0,0E0],"parents":[2147483647,0,0,1,1,2,2,3,3,4,4,5,5,6,6,7,7,9,9,10,10,11,11,12,12,13,13,14,14],"right_children":[2,4,6,8,10,12,14,16,-1,18,20,22,24,26,28,-1,-1,-1,-1,-1,-1,-1,-1,-1,-1,-1,-1,-1,-1],"split_conditions":[5.4130024E-1,3.2705528E-1,4.1949207E-1,4.5023745E-1,5.7150006E-1,5.598126E-2,6.094708E-1,6.8839985E-1,-1.9651297E-2,3.520201E-1,2.814833E-1,6.921526E-1,2.1542451E-1,3.5260412E-1,4.6084856E-4,-3.8282413E-3,-2.0937528E-2,2.0538853E-2,-9.00539E-4,-8.074767E-3,-1.7226027E-2,2.163145E-2,2.8414195E-2,2.2619158E-2,-1.9242768E-3,2.2962568E-2,-4.2153685E-3,-1.5501367E-2,2.1649709E-2],"split_indices":[3,3,8,4,5,4,3,5,0,3,1,3,8,0,4,0,0,0,0,0,0,0,0,0,0,0,0,0,0],"split_type":[0,0,0,0,0,0,0,0,0,0,0,0,0,0,0,0,0,0,0,0,0,0,0,0,0,0,0,0,0],"sum_hessian":[5.338295E2,3.5265634E2,1.8117316E2,2.2360002E2,1.2905632E2,1.4633405E2,3.483912E1,1.0280171E2,1.2079831E2,8.320773E1,4.584859E1,1.4139497E2,4.939068E0,1.6060043E1,1.8779076E1,5.290125E1,4.9900467E1,8.682784E0,7.452495E1,2.8011858E1,1.7836733E1,2.6411358E1,1.1498361E2,2.4840553E0,2.4550126E0,1.9624104E0,1.4097632E1,1.464464E0,1.7314611E1],"tree_param":{"num_deleted":"0","num_feature":"9","num_nodes":"29","size_leaf_vector":"1"}},{"base_weights":[1.1092961E-3,-5.7293075E-1,9.2829704E-1,-1.7835973E-2,4.7027696E-2,1.2984776E0,6.044722E-1,8.0125207E-1,-1.5178833E-2,4.716174E-1,1.3750789E0,3.3311328E-1,8.31995E-1,2.9453423E-2,4.749761E-3,3.735402E-2,8.418483E-4,9.629221E-3,4.208401E-2,4.5976345E-3,2.2409523E-2,2.9762834E-2,5.70565E-3],"categories":[],"categories_nodes":[],"categories_segments":[],"categories_sizes":[],"default_left":[0,0,0,0,0,0,0,0,0,0,0,0,0,0,0,0,0,0,0,0,0,0,0],"id":25,"left_children":[1,3,5,-1,7,9,11,13,-1,15,17,19,21,-1,-1,-1,-1,-1,-1,-1,-1,-1,-1],"loss_changes":[1.8766776E2,2.944397E0,1.5377205E1,0E0,3.85014E0,3.28096E0,4.278475E0,2.950077E-1,0E0,2.2919817E0,1.1936493E0,2.5146348E0,3.8667164E0,0E0,0E0,0E0,0E0,0E0,0E0,0E0,0E0,0E0,0E0],"parents":[2147483647,0,0,1,1,2,2,4,4,5,5,6,6,7,7,9,9,10,10,11,11,12,12],"right_children":[2,4,6,-1,8,10,12,14,-1,16,18,20,22,-1,-1,-1,-1,-1,-1,-1,-1,-1,-1],"split_conditions":[3.581952E-1,1.09768525E-1,2.8574872E-1,-1.7835973E-2,2.2201797E-1,4.633034E-1,3.7540674E-1,3.4539306E-1,-1.5178833E-2,2.625201E-1,2.6503187E-1,4.26479E-1,4.282204E-1,2.9453423E-2,4.749761E-3,3.735402E-2,8.418483E-4,9.629221E-3,4.208401E-2,4.5976345E-3,2.2409523E-2,2.9762834E-2,5.70565E-3],"split_indices":[4,7,5,0,5,4,5,7,0,6,7,7,5,0,0,0,0,0,0,0,0,0,0],"split_type":[0,0,0,0,0,0,0,0,0,0,0,0,0,0,0,0,0,0,0,0,0,0,0],"sum_hessian":[3.5059866E2,2.167726E2,1.3382608E2,2.0951338E2,7.259224E0,6.1039227E1,7.278685E1,2.880943E0,4.378281E0,5.7820964E0,5.525713E1,3.4319363E1,3.8467487E1,1.8378421E0,1.043101E0,1.4486437E0,4.3334527E0,1.7382681E0,5.351886E1,2.4878174E1,9.44119E0,3.0350683E1,8.116803E0],"tree_param":{"num_deleted":"0","num_feature":"9","num_nodes":"23","size_leaf_vector":"1"}},{"base_weights":[5.6138047E-4,-4.6532124E-1,5.66012E-1,-6.468373E-1,-1.565997E-1,6.31926E-1,-8.669193E-2,-6.605484E-1,1.5698093E-1,-6.168484E-2,-4.977012E-1,3.6015412E-1,7.3379546E-1,1.6163883E-1,-4.894946E-1,-1.3538682E-2,-2.0630758E-2,-2.589701E-3,1.010682E-2,2.1156859E-2,-3.20602E-3,6.220748E-3,-2.053818E-2,1.40865585E-2,-1.0242192E-2,2.3555694E-2,1.2293246E-2,-1.2934432E-2,1.2049855E-2,-4.4599148E-3,-1.9805923E-2],"categories":[],"categories_nodes":[],"categories_segments":[],"categories_sizes":[],"default_left":[0,0,0,0,0,0,0,0,0,0,0,0,0,0,0,0,0,0,0,0,0,0,0,0,0,0,0,0,0,0,0],"id":26,"left_children":[1,3,5,7,9,11,13,15,17,19,21,23,25,27,29,-1,-1,-1,-1,-1,-1,-1,-1,-1,-1,-1,-1,-1,-1,-1,-1],"loss_changes":[1.3978107E2,1.6201275E1,1.0366882E1,2.1192856E0,3.4994042E0,5.766327E0,2.366238E0,7.121124E-1,1.9871306E-1,3.0706651E0,3.2511759E0,4.869048E0,2.3006592E0,2.2926526E0,4.2364287E-1,0E0,0E0,0E0,0E0,0E0,0E0,0E0,0E0,0E0,0E0,0E0,0E0,0E0,0E0,0E0,0E0],"parents":[2147483647,0,0,1,1,2,2,3,3,4,4,5,5,6,6,7,7,8,8,9,9,10,10,11,11,12,12,13,13,14,14],"right_children":[2,4,6,8,10,12,14,16,18,20,22,24,26,28,30,-1,-1,-1,-1,-1,-1,-1,-1,-1,-1,-1,-1,-1,-1,-1,-1],"split_conditions":[4.1771698E-1,3.354515E-1,5.87384E-1,3.5066915E-1,5.4130024E-1,4.9307466E-1,4.039836E-1,2.0256247E-1,2.5870767E-1,3.4730336E-1,3.5547182E-1,4.1218096E-1,4.5818284E-1,3.5126486E-1,4.5543817E-1,-1.3538682E-2,-2.0630758E-2,-2.589701E-3,1.010682E-2,2.1156859E-2,-3.20602E-3,6.220748E-3,-2.053818E-2,1.40865585E-2,-1.0242192E-2,2.3555694E-2,1.2293246E-2,-1.2934432E-2,1.2049855E-2,-4.4599148E-3,-1.9805923E-2],"split_indices":[8,8,3,1,3,8,2,6,0,2,2,2,3,0,0,0,0,0,0,0,0,0,0,0,0,0,0,0,0,0,0],"split_type":[0,0,0,0,0,0,0,0,0,0,0,0,0,0,0,0,0,0,0,0,0,0,0,0,0,0,0,0,0,0,0],"sum_hessian":[5.286123E2,2.8992017E2,2.3869215E2,1.818842E2,1.0803595E2,2.1682745E2,2.18647E1,1.7900902E2,2.8751924E0,8.544177E1,2.259418E1,6.0352306E1,1.5647514E2,1.3896266E1,7.968434E0,2.2577492E1,1.5643152E2,1.4434059E0,1.4317867E0,3.9409459E0,8.1500824E1,4.7115197E0,1.788266E1,5.2496906E1,7.8554E0,1.3382526E2,2.264989E1,3.7755318E0,1.0120734E1,3.2834616E0,4.684973E0],"tree_param":{"num_deleted":"0","num_feature":"9","num_nodes":"31","size_leaf_vector":"1"}},{"base_weights":[-4.6388563E-3,1.8626888E-1,-5.97305E-1,6.8494576E-1,-3.1251562E-1,-6.090247E-1,9.672735E-4,7.951245E-1,-3.2847452E-1,-1.8273879E-2,-5.132069E-1,-4.8780724E-1,-6.5373325E-1,2.7745795E-2,1.9252805E-2,2.1313068E-3,-1.5685523E-2,-1.9993924E-2,7.509568E-4,-1.5993237E-2,1.0664976E-2,6.242338E-3,-1.5840568E-2,-4.4576623E-3,-1.987326E-2],"categories":[],"categories_nodes":[],"categories_segments":[],"categories_sizes":[],"default_left":[0,0,0,0,0,0,0,0,0,0,0,0,0,0,0,0,0,0,0,0,0,0,0,0,0],"id":27,"left_children":[1,3,5,7,9,11,-1,13,15,17,19,21,23,-1,-1,-1,-1,-1,-1,-1,-1,-1,-1,-1,-1],"loss_changes":[6.0831207E1,1.01366165E2,9.8608017E-1,2.300248E1,1.203718E1,3.7828064E-1,0E0,3.067299E0,1.6430366E0,2.367781E0,2.2855854E0,1.1900826E0,3.0208206E-1,0E0,0E0,0E0,0E0,0E0,0E0,0E0,0E0,0E0,0E0,0E0,0E0],"parents":[2147483647,0,0,1,1,2,2,3,3,4,4,5,5,7,7,8,8,9,9,10,10,11,11,12,12],"right_children":[2,4,6,8,10,12,-1,14,16,18,20,22,24,-1,-1,-1,-1,-1,-1,-1,-1,-1,-1,-1,-1],"split_conditions":[4.4481587E-1,4.036124E-1,4.0235758E-1,3.899957E-1,5.7150006E-1,2.8811902E-1,9.672735E-4,2.5116202E-1,3.6268055E-1,1.9142759E-4,8.67139E-2,3.5475868E-1,3.3240846E-1,2.7745795E-2,1.9252805E-2,2.1313068E-3,-1.5685523E-2,-1.9993924E-2,7.509568E-4,-1.5993237E-2,1.0664976E-2,6.242338E-3,-1.5840568E-2,-4.4576623E-3,-1.987326E-2],"split_indices":[4,5,0,7,5,1,0,8,8,7,4,2,7,0,0,0,0,0,0,0,0,0,0,0,0],"split_type":[0,0,0,0,0,0,0,0,0,0,0,0,0,0,0,0,0,0,0,0,0,0,0,0,0],"sum_hessian":[5.3565814E2,4.0567056E2,1.2998761E2,2.0267053E2,2.0300003E2,1.27643974E2,2.3436375E0,1.829912E2,1.9679335E1,8.2757256E1,1.2024278E2,3.760286E1,9.0041115E1,9.640712E1,8.658407E1,6.6485357E0,1.3030798E1,4.2815986E0,7.8475655E1,1.1792751E2,2.3152635E0,1.8261304E0,3.577673E1,1.8321233E0,8.8208984E1],"tree_param":{"num_deleted":"0","num_feature":"9","num_nodes":"25","size_leaf_vector":"1"}},{"base_weights":[-2.2053663E-3,-1.7757623E-2,8.1959647E-1,5.08699E-1,1.1144125E0,3.7068892E-1,8.32236E-1,-1.2855986E-1,1.1544743E0,7.7807414E-3,2.421379E-2,3.660952E-2,1.1727918E-2,-1.0211616E-2,4.404548E-3,6.7167385E-3,3.636246E-2],"categories":[],"categories_nodes":[],"categories_segments":[],"categories_sizes":[],"default_left":[0,0,0,0,0,0,0,0,0,0,0,0,0,0,0,0,0],"id":28,"left_children":[1,-1,3,5,7,9,11,13,15,-1,-1,-1,-1,-1,-1,-1,-1],"loss_changes":[1.6488025E2,0E0,1.246138E1,2.8627872E0,3.7395477E0,2.297338E0,3.0225143E0,2.3381677E-1,3.479416E0,0E0,0E0,0E0,0E0,0E0,0E0,0E0,0E0],"parents":[2147483647,0,0,2,2,3,3,4,4,5,5,6,6,7,7,8,8],"right_children":[2,-1,4,6,8,10,12,14,16,-1,-1,-1,-1,-1,-1,-1,-1],"split_conditions":[1.09768525E-1,-1.7757623E-2,4.3154392E-1,4.936573E-1,8.689462E-2,3.958769E-1,3.2107502E-1,3.7563458E-1,4.3142927E-1,7.7807414E-3,2.421379E-2,3.660952E-2,1.1727918E-2,-1.0211616E-2,4.404548E-3,6.7167385E-3,3.636246E-2],"split_indices":[7,0,7,4,6,2,0,2,4,0,0,0,0,0,0,0,0],"split_type":[0,0,0,0,0,0,0,0,0,0,0,0,0,0,0,0,0],"sum_hessian":[3.3821835E2,1.9707753E2,1.4114081E2,7.0023346E1,7.111746E1,5.058936E1,1.9433989E1,2.1516109E0,6.896585E1,4.157759E1,9.011769E0,9.4012985E0,1.0032691E1,1.0827003E0,1.0689106E0,4.3053093E0,6.466054E1],"tree_param":{"num_deleted":"0","num_feature":"9","num_nodes":"17","size_leaf_vector":"1"}},{"base_weights":[-4.6702046E-3,-4.2688483E-1,5.5557406E-1,-6.110797E-1,-1.0592E-1,2.9511917E-1,7.48404E-1,-6.247563E-1,2.1107506E-2,-2.577656E-1,1.5357029E-2,3.2180828E-1,-3.7557238E-1,7.6553786E-1,-2.9709141E-3,-1.2843441E-2,-1.9397302E-2,-1.1895688E-3,-1.3482556E-2,-8.511969E-3,8.255417E-3,1.3642441E-2,5.500022E-3,-8.7060436E-4,-1.5916847E-2,2.0239709E-2,2.7773328E-2],"categories":[],"categories_nodes":[],"categories_segments":[],"categories_sizes":[],"default_left":[0,0,0,0,0,0,0,0,0,0,0,0,0,0,0,0,0,0,0,0,0,0,0,0,0,0,0],"id":29,"left_children":[1,3,5,7,9,11,13,15,-1,17,19,21,23,25,-1,-1,-1,-1,-1,-1,-1,-1,-1,-1,-1,-1,-1],"loss_changes":[1.2647415E2,1.7960476E1,1.1319611E1,3.9188843E0,2.0735033E0,1.9001732E0,1.9834366E0,5.472336E-1,0E0,2.0705218E0,5.00674E0,1.6863747E0,2.1371686E-1,1.2524261E0,0E0,0E0,0E0,0E0,0E0,0E0,0E0,0E0,0E0,0E0,0E0,0E0,0E0],"parents":[2147483647,0,0,1,1,2,2,3,3,4,4,5,5,6,6,7,7,9,9,10,10,11,11,12,12,13,13],"right_children":[2,4,6,8,10,12,14,16,-1,18,20,22,24,26,-1,-1,-1,-1,-1,-1,-1,-1,-1,-1,-1,-1,-1],"split_conditions":[4.1243777E-1,3.076282E-1,5.7150006E-1,5.1275766E-1,3.7056383E-1,6.488784E-1,9.986395E-2,2.0256247E-1,2.1107506E-2,1.0672369E-2,3.1668815E-1,2.6664326E-1,4.309418E-1,7.1151155E-1,-2.9709141E-3,-1.2843441E-2,-1.9397302E-2,-1.1895688E-3,-1.3482556E-2,-8.511969E-3,8.255417E-3,1.3642441E-2,5.500022E-3,-8.7060436E-4,-1.5916847E-2,2.0239709E-2,2.7773328E-2],"split_indices":[5,5,5,8,7,6,4,6,0,4,0,1,5,5,0,0,0,0,0,0,0,0,0,0,0,0,0],"split_type":[0,0,0,0,0,0,0,0,0,0,0,0,0,0,0,0,0,0,0,0,0,0,0,0,0,0,0],"sum_hessian":[5.326738E2,3.038914E2,2.2878241E2,1.9251009E2,1.1138132E2,9.840182E1,1.303806E2,1.9104738E2,1.4627028E0,4.8957893E1,6.2423424E1,9.51362E1,3.2656121E0,1.27891464E2,2.489137E0,2.1141834E1,1.6990555E2,2.346272E1,2.5495173E1,2.8976192E1,3.344723E1,4.7372795E1,4.7763405E1,1.3760455E0,1.8895668E0,8.493205E1,4.2959408E1],"tree_param":{"num_deleted":"0","num_feature":"9","num_nodes":"27","size_leaf_vector":"1"}},{"base_weights":[-1.3863608E-2,-4.0439007E-1,7.1969163E-1,-5.7964504E-1,-2.2074406E-1,2.7656743E-1,8.2105935E-1,-6.58425E-1,-4.4713306E-1,6.9768648E-3,-3.6523557E-1,-3.583113E-1,3.8699037E-1,6.8588364E-1,2.7569404E-2,-1.9991295E-2,-3.337757E-3,7.0415507E-4,-1.5827192E-2,3.0801424E-3,-2.0479763E-2,-1.2373676E-2,7.1540214E-3,-1.9504255E-2,9.253075E-3,-1.5845686E-2,1.3515488E-2,5.619611E-3,2.2652626E-2],"categories":[],"categories_nodes":[],"categories_segments":[],"categories_sizes":[],"default_left":[0,0,0,0,0,0,0,0,0,0,0,0,0,0,0,0,0,0,0,0,0,0,0,0,0,0,0,0,0],"id":30,"left_children":[1,3,5,7,9,11,13,15,17,19,21,23,25,27,-1,-1,-1,-1,-1,-1,-1,-1,-1,-1,-1,-1,-1,-1,-1],"loss_changes":[1.5205241E2,1.1019306E1,8.056236E0,1.5492744E0,5.62059E0,2.651161E0,1.3494568E0,3.9855194E-1,2.6230726E0,4.509042E0,3.0767498E0,1.334736E0,2.0407982E0,2.1624374E0,0E0,0E0,0E0,0E0,0E0,0E0,0E0,0E0,0E0,0E0,0E0,0E0,0E0,0E0,0E0],"parents":[2147483647,0,0,1,1,2,2,3,3,4,4,5,5,6,6,7,7,8,8,9,9,10,10,11,11,12,12,13,13],"right_children":[2,4,6,8,10,12,14,16,18,20,22,24,26,28,-1,-1,-1,-1,-1,-1,-1,-1,-1,-1,-1,-1,-1,-1,-1],"split_conditions":[5.352444E-1,2.690978E-1,5.504131E-1,1.9416268E-1,4.9173838E-1,3.509491E-4,7.9086274E-1,3.9136747E-1,2.0543896E-1,4.904238E-1,5.0627714E-1,3.9060286E-1,3.4440854E-1,3.5547182E-1,2.7569404E-2,-1.9991295E-2,-3.337757E-3,7.0415507E-4,-1.5827192E-2,3.0801424E-3,-2.0479763E-2,-1.2373676E-2,7.1540214E-3,-1.9504255E-2,9.253075E-3,-1.5845686E-2,1.3515488E-2,5.619611E-3,2.2652626E-2],"split_indices":[3,3,6,3,8,7,3,6,3,7,3,2,2,2,0,0,0,0,0,0,0,0,0,0,0,0,0,0,0],"split_type":[0,0,0,0,0,0,0,0,0,0,0,0,0,0,0,0,0,0,0,0,0,0,0,0,0,0,0,0,0],"sum_hessian":[5.287586E2,3.4535104E2,1.8340753E2,1.7560927E2,1.6974178E2,3.483897E1,1.4856856E2,1.0764455E2,6.7964714E1,6.626259E1,1.03479195E2,4.829096E0,3.0009874E1,6.577429E1,8.279427E1,1.05887886E2,1.7566638E0,1.002468E1,5.7940037E1,5.8935726E1,7.3268595E0,9.626625E1,7.212941E0,3.376243E0,1.4528528E0,1.4731095E0,2.8536766E1,8.4689E0,5.7305393E1],"tree_param":{"num_deleted":"0","num_feature":"9","num_nodes":"29","size_leaf_vector":"1"}},{"base_weights":[-1.8826958E-2,-5.8023167E-1,7.493207E-1,-1.7684462E-2,-3.8089526E-1,1.1029704E0,4.5126158E-1,-1.6228542E-2,1.5914608E-2,1.1494354E0,-1.2234526E-2,7.800229E-2,5.7614124E-1,3.5029437E-2,2.6555932E-3,-3.5785665E-3,2.761698E-2,1.48158595E-2,4.56413E-2],"categories":[],"categories_nodes":[],"categories_segments":[],"categories_sizes":[],"default_left":[0,0,0,0,0,0,0,0,0,0,0,0,0,0,0,0,0,0,0],"id":31,"left_children":[1,3,5,-1,7,9,11,-1,-1,13,-1,15,17,-1,-1,-1,-1,-1,-1],"loss_changes":[1.5065823E2,1.4762115E-1,1.5052963E1,0E0,2.0048397E0,5.156616E0,3.7655563E0,0E0,0E0,1.153511E0,0E0,3.7086866E0,4.000448E0,0E0,0E0,0E0,0E0,0E0,0E0],"parents":[2147483647,0,0,1,1,2,2,4,4,5,5,6,6,9,9,11,11,12,12],"right_children":[2,4,6,-1,8,10,12,-1,-1,14,-1,16,18,-1,-1,-1,-1,-1,-1],"split_conditions":[3.1357804E-1,5.598126E-2,2.7448088E-1,-1.7684462E-2,6.921526E-1,3.9518803E-1,3.5894787E-1,-1.6228542E-2,1.5914608E-2,3.5916296E-1,-1.2234526E-2,3.2300994E-1,5.223784E-1,3.5029437E-2,2.6555932E-3,-3.5785665E-3,2.761698E-2,1.48158595E-2,4.56413E-2],"split_indices":[4,4,5,0,3,6,5,0,0,1,0,1,4,0,0,0,0,0,0],"split_type":[0,0,0,0,0,0,0,0,0,0,0,0,0,0,0,0,0,0,0],"sum_hessian":[3.4735095E2,2.0082303E2,1.4652791E2,1.900465E2,1.0776539E1,6.5779495E1,8.074841E1,9.5124235E0,1.2641149E0,6.404882E1,1.730676E0,2.0650297E1,6.009812E1,6.2868958E1,1.1798626E0,1.7427938E1,3.2223582E0,5.6686268E1,3.4118528E0],"tree_param":{"num_deleted":"0","num_feature":"9","num_nodes":"19","size_leaf_vector":"1"}},{"base_weights":[-4.594167E-3,-4.1651982E-1,5.6130916E-1,-5.984617E-1,-1.320166E-1,3.0631033E-1,7.475957E-1,-5.261129E-1,-2.100049E-2,-3.4572342E-1,1.4735547E-2,3.4546566E-1,-4.4605353E-1,7.650808E-1,-2.92015E-3,6.711027E-3,-1.6401485E-2,5.299205E-4,-1.4256304E-2,-1.5591225E-2,2.5902383E-3,1.2334514E-2,-4.3884956E-4,-8.537585E-4,-1.7683035E-2,2.5336048E-2,1.6164789E-2],"categories":[],"categories_nodes":[],"categories_segments":[],"categories_sizes":[],"default_left":[0,0,0,0,0,0,0,0,0,0,0,0,0,0,0,0,0,0,0,0,0,0,0,0,0,0,0],"id":32,"left_children":[1,3,5,7,9,11,13,15,-1,17,19,21,23,25,-1,-1,-1,-1,-1,-1,-1,-1,-1,-1,-1,-1,-1],"loss_changes":[1.2352561E2,1.5794975E1,1.0375206E1,1.0039444E0,3.7968004E0,2.9801302E0,1.969986E0,1.8693905E0,0E0,2.326408E0,2.8246887E0,2.1761246E0,2.9350007E-1,1.8066635E0,0E0,0E0,0E0,0E0,0E0,0E0,0E0,0E0,0E0,0E0,0E0,0E0,0E0],"parents":[2147483647,0,0,1,1,2,2,3,3,4,4,5,5,6,6,7,7,9,9,10,10,11,11,12,12,13,13],"right_children":[2,4,6,8,10,12,14,16,-1,18,20,22,24,26,-1,-1,-1,-1,-1,-1,-1,-1,-1,-1,-1,-1,-1],"split_conditions":[4.1243777E-1,3.076282E-1,5.688968E-1,7.9086274E-1,3.6986515E-1,6.488784E-1,8.67139E-2,3.509491E-4,-2.100049E-2,3.583966E-1,1.2965202E-1,5.352444E-1,4.282204E-1,3.656397E-1,-2.92015E-3,6.711027E-3,-1.6401485E-2,5.299205E-4,-1.4256304E-2,-1.5591225E-2,2.5902383E-3,1.2334514E-2,-4.3884956E-4,-8.537585E-4,-1.7683035E-2,2.5336048E-2,1.6164789E-2],"split_indices":[5,5,5,3,7,6,4,7,0,2,6,3,5,3,0,0,0,0,0,0,0,0,0,0,0,0,0],"split_type":[0,0,0,0,0,0,0,0,0,0,0,0,0,0,0,0,0,0,0,0,0,0,0,0,0,0,0],"sum_hessian":[5.278995E2,3.056664E2,2.2223308E2,1.857649E2,1.1990152E2,9.493092E1,1.2730216E2,1.1209071E2,7.367417E1,4.826301E1,7.163851E1,9.074889E1,4.182025E0,1.24813774E2,2.4883864E0,2.7340138E0,1.09356705E2,1.29064245E1,3.5356586E1,7.7248335E0,6.3913677E1,7.6629166E1,1.4119733E1,1.375215E0,2.8068101E0,9.035204E1,3.4461735E1],"tree_param":{"num_deleted":"0","num_feature":"9","num_nodes":"27","size_leaf_vector":"1"}},{"base_weights":[1.0828178E-2,-4.2131546E-1,6.977741E-1,-5.640383E-1,-2.64317E-1,2.6342663E-1,8.2263124E-1,-5.098489E-1,-2.1645276E-2,-4.1276213E-2,-3.7263972E-1,6.64322E-1,7.450792E-2,8.322913E-1,-3.6922977E-3,-1.6059855E-2,-3.2874157E-3,-1.1692271E-2,5.893419E-3,-1.583572E-2,-8.272929E-3,-4.0594866E-3,2.2869933E-2,1.9135905E-2,-9.752629E-4,1.8380951E-2,2.604896E-2],"categories":[],"categories_nodes":[],"categories_segments":[],"categories_sizes":[],"default_left":[0,0,0,0,0,0,0,0,0,0,0,0,0,0,0,0,0,0,0,0,0,0,0,0,0,0,0],"id":33,"left_children":[1,3,5,7,9,11,13,15,-1,17,19,21,23,25,-1,-1,-1,-1,-1,-1,-1,-1,-1,-1,-1,-1,-1],"loss_changes":[1.5653061E2,7.103882E0,1.082534E1,1.0714569E0,3.7540627E0,3.5050018E0,1.5429306E0,1.2559128E0,0E0,4.3946657E0,1.4316549E0,1.2713833E0,2.011831E0,7.031555E-1,0E0,0E0,0E0,0E0,0E0,0E0,0E0,0E0,0E0,0E0,0E0,0E0,0E0],"parents":[2147483647,0,0,1,1,2,2,3,3,4,4,5,5,6,6,7,7,9,9,10,10,11,11,12,12,13,13],"right_children":[2,4,6,8,10,12,14,16,-1,18,20,22,24,26,-1,-1,-1,-1,-1,-1,-1,-1,-1,-1,-1,-1,-1],"split_conditions":[4.938697E-1,2.6226076E-1,5.504131E-1,3.8794807E-1,5.236894E-1,3.4903207E-1,3.3954993E-1,3.8567406E-1,-2.1645276E-2,2.4310283E-1,4.138388E-1,6.930823E-4,5.116066E-1,3.5435948E-1,-3.6922977E-3,-1.6059855E-2,-3.2874157E-3,-1.1692271E-2,5.893419E-3,-1.583572E-2,-8.272929E-3,-4.0594866E-3,2.2869933E-2,1.9135905E-2,-9.752629E-4,1.8380951E-2,2.604896E-2],"split_indices":[3,3,6,2,5,5,1,2,0,5,6,4,3,2,0,0,0,0,0,0,0,0,0,0,0,0,0],"split_type":[0,0,0,0,0,0,0,0,0,0,0,0,0,0,0,0,0,0,0,0,0,0,0,0,0,0,0],"sum_hessian":[5.252985E2,3.2268848E2,2.0261003E2,1.6767096E2,1.5501752E2,4.5932358E1,1.5667767E2,1.2789653E2,3.9774426E1,5.1126686E1,1.0389084E2,1.3906208E1,3.202615E1,1.5521216E2,1.4655159E0,1.1992512E2,7.9714184E0,2.0474594E1,3.065209E1,3.821401E1,6.567683E1,1.4767802E0,1.2429427E1,4.3207116E0,2.7705437E1,2.440328E1,1.3080888E2],"tree_param":{"num_deleted":"0","num_feature":"9","num_nodes":"27","size_leaf_vector":"1"}},{"base_weights":[-1.0758556E-2,-5.7303697E-1,7.765023E-1,-1.7620912E-2,2.3667154E-1,1.1230582E0,4.8827177E-1,-1.1581946E-2,2.5132436E-2,5.0363046E-1,1.1695932E0,5.559623E-1,-2.6813573E-1,-1.2562563E-2,2.5034808E-2,3.5752457E-2,8.9164E-3,2.8726354E-2,1.3636421E-2,-1.5654903E-2,1.4076268E-2],"categories":[],"categories_nodes":[],"categories_segments":[],"categories_sizes":[],"default_left":[0,0,0,0,0,0,0,0,0,0,0,0,0,0,0,0,0,0,0,0,0],"id":34,"left_children":[1,3,5,-1,7,9,11,-1,-1,13,15,17,19,-1,-1,-1,-1,-1,-1,-1,-1],"loss_changes":[1.516729E2,2.4575958E0,1.3712135E1,0E0,1.8909473E0,1.2573318E0,4.230377E0,0E0,0E0,2.2513833E0,7.827225E-1,2.5576763E0,1.5957886E0,0E0,0E0,0E0,0E0,0E0,0E0,0E0,0E0],"parents":[2147483647,0,0,1,1,2,2,4,4,5,5,6,6,9,9,10,10,11,11,12,12],"right_children":[2,4,6,-1,8,10,12,-1,-1,14,16,18,20,-1,-1,-1,-1,-1,-1,-1,-1],"split_conditions":[3.1357804E-1,1.09768525E-1,2.523822E-1,-1.7620912E-2,4.7674277E-1,1.18825994E-1,3.0786613E-1,-1.1581946E-2,2.5132436E-2,9.719517E-2,3.684495E-1,1.2577337E-1,3.9674857E-1,-1.2562563E-2,2.5034808E-2,3.5752457E-2,8.9164E-3,2.8726354E-2,1.3636421E-2,-1.5654903E-2,1.4076268E-2],"split_indices":[4,7,5,0,3,3,3,0,0,5,8,6,7,0,0,0,0,0,0,0,0],"split_type":[0,0,0,0,0,0,0,0,0,0,0,0,0,0,0,0,0,0,0,0,0],"sum_hessian":[3.4063464E2,1.9886975E2,1.4176488E2,1.9568202E2,3.1877415E0,6.3054504E1,7.871038E1,1.7413509E0,1.4463906E0,5.2321315E0,5.7822372E1,7.248842E1,6.22196E0,1.3111801E0,3.9209514E0,5.6033234E1,1.78914E0,1.2913134E1,5.9575287E1,4.8466744E0,1.3752855E0],"tree_param":{"num_deleted":"0","num_feature":"9","num_nodes":"21","size_leaf_vector":"1"}},{"base_weights":[2.2938691E-2,-3.7833127E-1,5.49892E-1,-5.875515E-1,-5.7559412E-2,3.0742154E-1,7.2743523E-1,-5.965081E-1,1.0249151E-2,-2.5726923E-1,6.48554E-2,4.1921878E-1,1.0592326E-1,6.356087E-1,2.6732944E-2,-1.826754E-2,2.1529754E-3,2.1112148E-2,-9.103207E-3,1.39525365E-2,-1.6666696E-3,1.504135E-2,2.7441746E-3,6.5127797E-3,-1.605757E-2,-1.5340523E-4,1.97282E-2],"categories":[],"categories_nodes":[],"categories_segments":[],"categories_sizes":[],"default_left":[0,0,0,0,0,0,0,0,0,0,0,0,0,0,0,0,0,0,0,0,0,0,0,0,0,0,0],"id":35,"left_children":[1,3,5,7,9,11,13,15,-1,17,19,21,23,25,-1,-1,-1,-1,-1,-1,-1,-1,-1,-1,-1,-1,-1],"loss_changes":[1.15551384E2,2.07887E1,9.945427E0,1.7657089E0,3.0381272E0,2.2439795E0,1.4720383E0,1.5883026E0,0E0,2.3064253E0,3.7569203E0,1.7043324E0,2.7954192E0,1.277153E0,0E0,0E0,0E0,0E0,0E0,0E0,0E0,0E0,0E0,0E0,0E0,0E0,0E0],"parents":[2147483647,0,0,1,1,2,2,3,3,4,4,5,5,6,6,7,7,9,9,10,10,11,11,12,12,13,13],"right_children":[2,4,6,8,10,12,14,16,-1,18,20,22,24,26,-1,-1,-1,-1,-1,-1,-1,-1,-1,-1,-1,-1,-1],"split_conditions":[4.1243777E-1,3.076282E-1,5.7150006E-1,3.5916296E-1,2.805468E-1,4.9181303E-1,7.1151155E-1,5.1275766E-1,1.0249151E-2,3.316805E-1,2.9207346E-1,4.176985E-1,4.1738668E-1,2.4061544E-1,2.6732944E-2,-1.826754E-2,2.1529754E-3,2.1112148E-2,-9.103207E-3,1.39525365E-2,-1.6666696E-3,1.504135E-2,2.7441746E-3,6.5127797E-3,-1.605757E-2,-1.5340523E-4,1.97282E-2],"split_indices":[5,5,5,1,1,3,5,8,0,0,1,7,2,3,0,0,0,0,0,0,0,0,0,0,0,0,0],"split_type":[0,0,0,0,0,0,0,0,0,0,0,0,0,0,0,0,0,0,0,0,0,0,0,0,0,0,0],"sum_hessian":[5.4448615E2,3.0926547E2,2.3522069E2,1.8667616E2,1.225893E2,1.00584335E2,1.3463635E2,1.8524855E2,1.4276145E0,4.616813E1,7.642117E1,6.3996613E1,3.6587727E1,8.9374535E1,4.5261818E1,1.8195837E2,3.290172E0,1.4635564E0,4.4704575E1,1.7012287E1,5.9408886E1,5.0745846E1,1.3250767E1,3.1745064E1,4.8426623E0,2.9921358E0,8.63824E1],"tree_param":{"num_deleted":"0","num_feature":"9","num_nodes":"27","size_leaf_vector":"1"}},{"base_weights":[-4.9629034E-3,-3.795062E-1,6.8931276E-1,-5.5826235E-1,-1.9939648E-1,7.822263E-1,3.115965E-1,-4.9764386E-1,-2.150508E-2,6.8796344E-2,-3.4487277E-1,8.118879E-1,2.0722172E-1,5.0847656E-1,-1.3306728E-2,-7.7903857E-3,-1.745057E-2,8.539646E-3,-1.0944128E-2,-1.5733708E-2,-7.058722E-3,2.4699373E-2,1.0267671E-2,-1.2158986E-2,1.589154E-2,-1.5420035E-2,1.8003453E-2,1.8009929E-2,-6.3392436E-3],"categories":[],"categories_nodes":[],"categories_segments":[],"categories_sizes":[],"default_left":[0,0,0,0,0,0,0,0,0,0,0,0,0,0,0,0,0,0,0,0,0,0,0,0,0,0,0,0,0],"id":36,"left_children":[1,3,5,7,9,11,13,15,-1,17,19,21,23,25,27,-1,-1,-1,-1,-1,-1,-1,-1,-1,-1,-1,-1,-1,-1],"loss_changes":[1.346193E2,1.0715187E1,6.12307E0,1.260231E0,6.6196117E0,2.3037796E0,2.4041247E0,2.3481045E0,0E0,5.7464485E0,2.0367975E0,4.5586395E-1,1.8843857E0,2.4974694E0,1.9634391E0,0E0,0E0,0E0,0E0,0E0,0E0,0E0,0E0,0E0,0E0,0E0,0E0,0E0,0E0],"parents":[2147483647,0,0,1,1,2,2,3,3,4,4,5,5,6,6,7,7,9,9,10,10,11,11,12,12,13,13,14,14],"right_children":[2,4,6,8,10,12,14,16,-1,18,20,22,24,26,28,-1,-1,-1,-1,-1,-1,-1,-1,-1,-1,-1,-1,-1,-1],"split_conditions":[5.4130024E-1,2.690978E-1,4.2683905E-1,3.8794807E-1,5.0483483E-1,3.2746036E-2,4.0207312E-1,4.4481587E-1,-2.150508E-2,3.8635272E-1,3.656397E-1,4.3733202E-2,3.5435948E-1,4.6084856E-4,3.5328346E-1,-7.7903857E-3,-1.745057E-2,8.539646E-3,-1.0944128E-2,-1.5733708E-2,-7.058722E-3,2.4699373E-2,1.0267671E-2,-1.2158986E-2,1.589154E-2,-1.5420035E-2,1.8003453E-2,1.8009929E-2,-6.3392436E-3],"split_indices":[3,3,8,2,5,7,5,4,0,7,3,4,2,4,0,0,0,0,0,0,0,0,0,0,0,0,0,0,0],"split_type":[0,0,0,0,0,0,0,0,0,0,0,0,0,0,0,0,0,0,0,0,0,0,0,0,0,0,0,0,0],"sum_hessian":[5.156883E2,3.3527155E2,1.8041673E2,1.6721432E2,1.6805722E2,1.4393866E2,3.6478073E1,1.2396433E2,4.3249996E1,5.9286568E1,1.0877065E2,1.3648605E2,7.4525986E0,2.2362293E1,1.411578E1,3.3421432E1,9.054291E1,3.981103E1,1.9475538E1,3.9784855E1,6.89858E1,1.3250945E2,3.9766116E0,2.481913E0,4.9706855E0,1.4602478E0,2.0902046E1,2.94788E0,1.11679E1],"tree_param":{"num_deleted":"0","num_feature":"9","num_nodes":"29","size_leaf_vector":"1"}},{"base_weights":[1.0665783E-2,-1.7547559E-2,7.4616355E-1,9.9238986E-1,4.8640242E-1,5.2723366E-1,1.098283E0,-3.7170324E-1,5.543696E-1,3.4689706E-2,5.116055E-3,3.3842668E-2,-9.978059E-3,-1.5313243E-2,5.1597543E-3,1.751329E-2,-1.1704894E-2],"categories":[],"categories_nodes":[],"categories_segments":[],"categories_sizes":[],"default_left":[0,0,0,0,0,0,0,0,0,0,0,0,0,0,0,0,0],"id":37,"left_children":[1,-1,3,5,7,9,11,13,15,-1,-1,-1,-1,-1,-1,-1,-1],"loss_changes":[1.5105971E2,0E0,9.385841E0,3.2752228E0,4.6994934E0,3.4903774E0,3.0541916E0,5.5947083E-1,2.2218018E0,0E0,0E0,0E0,0E0,0E0,0E0,0E0,0E0],"parents":[2147483647,0,0,2,2,3,3,4,4,5,5,6,6,7,7,8,8],"right_children":[2,-1,4,6,8,10,12,14,16,-1,-1,-1,-1,-1,-1,-1,-1],"split_conditions":[7.849347E-2,-1.7547559E-2,3.076282E-1,3.9674857E-1,3.2544804E-1,3.2705528E-1,3.681455E-1,3.9509526E-1,2.9651296E-1,3.4689706E-2,5.116055E-3,3.3842668E-2,-9.978059E-3,-1.5313243E-2,5.1597543E-3,1.751329E-2,-1.1704894E-2],"split_indices":[7,0,5,7,5,3,6,2,3,0,0,0,0,0,0,0,0],"split_type":[0,0,0,0,0,0,0,0,0,0,0,0,0,0,0,0,0],"sum_hessian":[3.428487E2,1.895563E2,1.5329237E2,7.724849E1,7.6043884E1,1.5433362E1,6.181513E1,5.2530975E0,7.079079E1,4.7732677E0,1.0660094E1,6.0761066E1,1.0540617E0,4.233875E0,1.019223E0,6.9023766E1,1.7670202E0],"tree_param":{"num_deleted":"0","num_feature":"9","num_nodes":"17","size_leaf_vector":"1"}},{"base_weights":[3.5393226E-3,-3.9997622E-1,4.59794E-1,-5.7687074E-1,-1.1546587E-1,5.769613E-1,3.7140913E-2,-5.938308E-1,-2.0468231E-2,4.7538674E-1,-1.7127946E-1,6.611599E-1,1.1698007E-1,1.10323474E-1,-2.0137118E-2,-1.1923112E-2,-1.8560091E-2,1.0663545E-2,-1.019512E-2,-1.3589231E-2,2.0531198E-2,-7.6366174E-3,7.5161126E-3,2.3513012E-2,1.4744643E-2,-1.799659E-2,9.65201E-3,1.5505738E-2,-5.373181E-4],"categories":[],"categories_nodes":[],"categories_segments":[],"categories_sizes":[],"default_left":[0,0,0,0,0,0,0,0,0,0,0,0,0,0,0,0,0,0,0,0,0,0,0,0,0,0,0,0,0],"id":38,"left_children":[1,3,5,7,9,11,13,15,17,19,21,23,25,27,-1,-1,-1,-1,-1,-1,-1,-1,-1,-1,-1,-1,-1,-1,-1],"loss_changes":[9.7306046E1,1.4049561E1,1.2262413E1,1.6175461E0,3.6687925E0,7.441818E0,2.9205494E0,5.714836E-1,8.584442E-1,2.1829867E0,3.5809324E0,3.0241852E0,4.7805066E0,2.6484547E0,0E0,0E0,0E0,0E0,0E0,0E0,0E0,0E0,0E0,0E0,0E0,0E0,0E0,0E0,0E0],"parents":[2147483647,0,0,1,1,2,2,3,3,4,4,5,5,6,6,7,7,8,8,9,9,10,10,11,11,12,12,13,13],"right_children":[2,4,6,8,10,12,14,16,18,20,22,24,26,28,-1,-1,-1,-1,-1,-1,-1,-1,-1,-1,-1,-1,-1,-1,-1],"split_conditions":[4.1771698E-1,3.354515E-1,4.9181303E-1,3.3954993E-1,3.507046E-1,1.4730412E-1,4.272516E-1,2.0256247E-1,2.5517437E-1,3.3841178E-1,5.063838E-1,3.682775E-1,4.5485657E-1,1.9346083E-3,-2.0137118E-2,-1.1923112E-2,-1.8560091E-2,1.0663545E-2,-1.019512E-2,-1.3589231E-2,2.0531198E-2,-7.6366174E-3,7.5161126E-3,2.3513012E-2,1.4744643E-2,-1.799659E-2,9.65201E-3,1.5505738E-2,-5.373181E-4],"split_indices":[8,8,3,1,2,4,2,6,6,2,4,3,4,4,0,0,0,0,0,0,0,0,0,0,0,0,0,0,0],"split_type":[0,0,0,0,0,0,0,0,0,0,0,0,0,0,0,0,0,0,0,0,0,0,0,0,0,0,0,0,0],"sum_hessian":[5.265342E2,2.794816E2,2.4705257E2,1.7169963E2,1.0778198E2,1.931443E2,5.3908276E1,1.6655548E2,5.144145E0,8.653809E0,9.9128174E1,1.6289023E2,3.0254066E1,4.96257E1,4.2825727E0,2.0608742E1,1.4594675E2,2.31098E0,2.8331652E0,1.3756056E0,7.278203E0,8.311604E1,1.601213E1,9.245884E1,7.04314E1,6.29272E0,2.3961346E1,1.1173212E1,3.845249E1],"tree_param":{"num_deleted":"0","num_feature":"9","num_nodes":"29","size_leaf_vector":"1"}},{"base_weights":[-1.1165652E-2,-4.2150104E-1,6.3798857E-1,-6.3224006E-1,-3.147983E-1,3.5642433E-1,8.1170213E-1,-6.4039046E-1,-3.2520052E-3,-3.3232749E-1,3.8873258E-1,-2.5380513E-1,4.2116776E-1,4.936123E-1,8.2421374E-1,-1.9457463E-2,-5.6660585E-3,-1.4861422E-2,-7.4092164E-3,2.3528084E-2,-6.371638E-3,-1.5220368E-2,6.344856E-3,8.847847E-3,2.134284E-2,2.2283629E-2,-7.5203087E-3,2.5125457E-2,1.5098757E-2],"categories":[],"categories_nodes":[],"categories_segments":[],"categories_sizes":[],"default_left":[0,0,0,0,0,0,0,0,0,0,0,0,0,0,0,0,0,0,0,0,0,0,0,0,0,0,0,0,0],"id":39,"left_children":[1,3,5,7,9,11,13,15,-1,17,19,21,23,25,27,-1,-1,-1,-1,-1,-1,-1,-1,-1,-1,-1,-1,-1,-1],"loss_changes":[1.3162953E2,6.6088943E0,9.071983E0,3.6083984E-1,2.6324272E0,3.0624971E0,6.111145E-2,2.4377441E-1,0E0,2.6414185E0,1.4494178E0,1.0274527E0,2.282217E0,1.4738379E0,5.504608E-2,0E0,0E0,0E0,0E0,0E0,0E0,0E0,0E0,0E0,0E0,0E0,0E0,0E0,0E0],"parents":[2147483647,0,0,1,1,2,2,3,3,4,4,5,5,6,6,7,7,9,9,10,10,11,11,12,12,13,13,14,14],"right_children":[2,4,6,8,10,12,14,16,-1,18,20,22,24,26,28,-1,-1,-1,-1,-1,-1,-1,-1,-1,-1,-1,-1,-1,-1],"split_conditions":[4.938697E-1,1.9416268E-1,6.528828E-1,3.9136747E-1,5.698188E-1,8.764511E-4,5.31588E-4,6.827628E-1,-3.2520052E-3,6.5347617E-3,4.048172E-1,6.653554E-1,6.653554E-1,4.6084856E-4,2.8008996E-2,-1.9457463E-2,-5.6660585E-3,-1.4861422E-2,-7.4092164E-3,2.3528084E-2,-6.371638E-3,-1.5220368E-2,6.344856E-3,8.847847E-3,2.134284E-2,2.2283629E-2,-7.5203087E-3,2.5125457E-2,1.5098757E-2],"split_indices":[3,3,6,6,6,4,4,7,0,7,0,3,3,4,7,0,0,0,0,0,0,0,0,0,0,0,0,0,0],"split_type":[0,0,0,0,0,0,0,0,0,0,0,0,0,0,0,0,0,0,0,0,0,0,0,0,0,0,0,0,0],"sum_hessian":[4.9214923E2,3.01757E2,1.9039223E2,9.977502E1,2.0198198E2,7.380955E1,1.1658268E2,9.802732E1,1.7476933E0,1.9758653E2,4.3954396E0,6.7997127E0,6.7009834E1,5.9429975E0,1.1063968E2,9.585191E1,2.175414E0,6.624091E1,1.3134563E2,2.467287E0,1.9281527E0,4.342913E0,2.4567997E0,4.8104424E1,1.8905413E1,4.453919E0,1.4890785E0,1.0469078E2,5.948898E0],"tree_param":{"num_deleted":"0","num_feature":"9","num_nodes":"29","size_leaf_vector":"1"}},{"base_weights":[2.4571879E-2,-1.7478619E-2,7.3471856E-1,4.6319443E-1,9.714819E-1,1.7408909E-1,6.846724E-1,1.0002086E0,7.158837E-2,1.8421808E-2,7.960551E-4,2.4437035E-2,5.69167E-3,2.0084878E-2,3.35055E-2,1.6974363E-2,-1.17081385E-2],"categories":[],"categories_nodes":[],"categories_segments":[],"categories_sizes":[],"default_left":[0,0,0,0,0,0,0,0,0,0,0,0,0,0,0,0,0],"id":40,"left_children":[1,-1,3,5,7,9,11,13,15,-1,-1,-1,-1,-1,-1,-1,-1],"loss_changes":[1.4476768E2,0E0,9.49733E0,4.6182184E0,2.0416183E0,2.1542594E0,2.5169277E0,2.3050919E0,1.0439101E0,0E0,0E0,0E0,0E0,0E0,0E0,0E0,0E0],"parents":[2147483647,0,0,2,2,3,3,4,4,5,5,6,6,7,7,8,8],"right_children":[2,-1,4,6,8,10,12,14,16,-1,-1,-1,-1,-1,-1,-1,-1],"split_conditions":[1.09768525E-1,-1.7478619E-2,4.936573E-1,4.0497726E-1,3.669259E-1,3.6485127E-1,4.8214114E-1,1.20422445E-1,2.6226076E-1,1.8421808E-2,7.960551E-4,2.4437035E-2,5.69167E-3,2.0084878E-2,3.35055E-2,1.6974363E-2,-1.17081385E-2],"split_indices":[7,0,4,7,6,2,4,3,3,0,0,0,0,0,0,0,0],"split_type":[0,0,0,0,0,0,0,0,0,0,0,0,0,0,0,0,0],"sum_hessian":[3.3374265E2,1.8000964E2,1.53733E2,7.298683E1,8.074617E1,3.2434555E1,4.0552277E1,7.814027E1,2.6059E0,7.3517528E0,2.5082804E1,3.1610586E1,8.9416895E0,2.2131289E1,5.600898E1,1.1501169E0,1.4557831E0],"tree_param":{"num_deleted":"0","num_feature":"9","num_nodes":"17","size_leaf_vector":"1"}},{"base_weights":[-4.0974417E-3,-3.8864255E-1,5.183416E-1,-5.8726025E-1,-1.401705E-1,7.0668375E-3,5.8078104E-1,-1.8643957E-1,-6.0418415E-1,-4.3815944E-1,-5.4379232E-2,1.6512327E-1,-4.4213492E-1,4.8420808E-1,2.445463E-2,-1.8630803E-2,1.5056834E-2,-9.81729E-3,-1.9064307E-2,1.6376567E-3,-1.4428724E-2,3.0782414E-3,-5.953656E-3,9.790612E-3,-1.2253357E-2,-1.1709603E-3,-1.9735513E-2,5.5363313E-3,1.5847944E-2],"categories":[],"categories_nodes":[],"categories_segments":[],"categories_sizes":[],"default_left":[0,0,0,0,0,0,0,0,0,0,0,0,0,0,0,0,0,0,0,0,0,0,0,0,0,0,0,0,0],"id":41,"left_children":[1,3,5,7,9,11,13,15,17,19,21,23,25,27,-1,-1,-1,-1,-1,-1,-1,-1,-1,-1,-1,-1,-1,-1,-1],"loss_changes":[1.0530825E2,1.48182335E1,7.0908127E0,1.0234833E0,3.4387972E0,1.8621988E0,4.0878906E0,2.7740955E0,1.1808472E0,6.6178274E-1,2.4248643E0,1.9244959E0,5.683148E-1,1.7866974E0,0E0,0E0,0E0,0E0,0E0,0E0,0E0,0E0,0E0,0E0,0E0,0E0,0E0,0E0,0E0],"parents":[2147483647,0,0,1,1,2,2,3,3,4,4,5,5,6,6,7,7,8,8,9,9,10,10,11,11,12,12,13,13],"right_children":[2,4,6,8,10,12,14,16,18,20,22,24,26,28,-1,-1,-1,-1,-1,-1,-1,-1,-1,-1,-1,-1,-1,-1,-1],"split_conditions":[4.1243777E-1,3.354515E-1,4.1892225E-1,1.1823396E-1,3.076282E-1,4.1350785E-1,6.8839985E-1,8.883419E-2,2.0256247E-1,3.4730336E-1,4.0126908E-1,6.528828E-1,3.1062505E-1,3.0786613E-1,2.445463E-2,-1.8630803E-2,1.5056834E-2,-9.81729E-3,-1.9064307E-2,1.6376567E-3,-1.4428724E-2,3.0782414E-3,-5.953656E-3,9.790612E-3,-1.2253357E-2,-1.1709603E-3,-1.9735513E-2,5.5363313E-3,1.5847944E-2],"split_indices":[5,8,8,3,5,8,5,3,6,2,8,6,0,3,0,0,0,0,0,0,0,0,0,0,0,0,0,0,0],"split_type":[0,0,0,0,0,0,0,0,0,0,0,0,0,0,0,0,0,0,0,0,0,0,0,0,0,0,0,0,0],"sum_hessian":[5.2217615E2,3.009303E2,2.2124586E2,1.6648555E2,1.3444475E2,2.4200163E1,1.970457E2,7.231585E0,1.5925397E2,2.9135992E1,1.05308754E2,1.8369179E1,5.8309836E0,1.4171738E2,5.532832E1,4.4927936E0,2.7387912E0,1.7331106E1,1.4192285E2,2.3063812E0,2.682961E1,5.0533993E1,5.477476E1,1.467503E1,3.694149E0,2.4443054E0,3.3866782E0,1.8829851E1,1.2288753E2],"tree_param":{"num_deleted":"0","num_feature":"9","num_nodes":"29","size_leaf_vector":"1"}},{"base_weights":[1.3391138E-2,-3.4306636E-1,6.9965255E-1,-5.489149E-1,-1.3996804E-1,3.2721007E-1,7.870288E-1,-6.209805E-1,-4.232709E-1,1.1960657E-1,-3.5239422E-1,6.0750026E-1,8.298672E-2,2.5189057E-2,5.855549E-1,-1.8866604E-2,-2.5518737E-3,5.4877313E-5,-1.4823229E-2,7.3270537E-3,-1.6463682E-2,-8.465058E-3,-1.9085746E-2,-3.6280793E-3,2.0606892E-2,-1.9464388E-3,2.4596151E-2,-3.5071368E-3,2.5536928E-2],"categories":[],"categories_nodes":[],"categories_segments":[],"categories_sizes":[],"default_left":[0,0,0,0,0,0,0,0,0,0,0,0,0,0,0,0,0,0,0,0,0,0,0,0,0,0,0,0,0],"id":42,"left_children":[1,3,5,7,9,11,13,15,17,19,21,23,25,-1,27,-1,-1,-1,-1,-1,-1,-1,-1,-1,-1,-1,-1,-1,-1],"loss_changes":[1.2764842E2,1.4282249E1,5.547386E0,1.2785339E0,9.649028E0,2.3870552E0,1.0321579E0,3.958168E-1,1.9639683E0,6.7279654E0,1.7351065E0,1.032803E0,2.2527294E0,0E0,6.271611E0,0E0,0E0,0E0,0E0,0E0,0E0,0E0,0E0,0E0,0E0,0E0,0E0,0E0,0E0],"parents":[2147483647,0,0,1,1,2,2,3,3,4,4,5,5,6,6,7,7,8,8,9,9,10,10,11,11,12,12,14,14],"right_children":[2,4,6,8,10,12,14,16,18,20,22,24,26,-1,28,-1,-1,-1,-1,-1,-1,-1,-1,-1,-1,-1,-1,-1,-1],"split_conditions":[5.490146E-1,2.690978E-1,5.6559384E-1,1.9416268E-1,5.26322E-1,3.4903207E-1,2.7795756E-1,3.8885668E-1,2.0543896E-1,4.4481587E-1,6.304405E-1,6.930823E-4,4.265521E-1,2.5189057E-2,7.2009945E-1,-1.8866604E-2,-2.5518737E-3,5.4877313E-5,-1.4823229E-2,7.3270537E-3,-1.6463682E-2,-8.465058E-3,-1.9085746E-2,-3.6280793E-3,2.0606892E-2,-1.9464388E-3,2.4596151E-2,-3.5071368E-3,2.5536928E-2],"split_indices":[3,3,6,3,5,5,1,6,3,4,8,4,5,0,6,0,0,0,0,0,0,0,0,0,0,0,0,0,0],"split_type":[0,0,0,0,0,0,0,0,0,0,0,0,0,0,0,0,0,0,0,0,0,0,0,0,0,0,0,0,0],"sum_hessian":[5.198357E2,3.4245697E2,1.7737871E2,1.6923132E2,1.7322565E2,3.460771E1,1.42771E2,1.0504074E2,6.419058E1,7.815767E1,9.506798E1,1.5421403E1,1.918631E1,1.106991E2,3.2071896E1,1.0334267E2,1.6980749E0,9.307753E0,5.488283E1,6.640959E1,1.1748082E1,7.7808525E1,1.7259449E1,1.4642408E0,1.3957162E1,1.6739258E1,2.4470534E0,8.954849E0,2.3117044E1],"tree_param":{"num_deleted":"0","num_feature":"9","num_nodes":"29","size_leaf_vector":"1"}},{"base_weights":[-2.5204767E-2,-5.7594144E-1,6.631479E-1,-1.7420098E-2,-1.8787467E-1,3.4673005E-1,9.1407114E-1,4.904058E-3,-1.1467253E-2,-4.543106E-2,6.181462E-1,9.6508545E-1,9.801519E-2,-8.716515E-3,4.3956786E-3,3.566889E-2,1.3702032E-2,3.0047331E-2,4.7690156E-4,-1.4254713E-2,1.7615395E-2],"categories":[],"categories_nodes":[],"categories_segments":[],"categories_sizes":[],"default_left":[0,0,0,0,0,0,0,0,0,0,0,0,0,0,0,0,0,0,0,0,0],"id":43,"left_children":[1,3,5,-1,7,9,11,-1,-1,13,15,17,19,-1,-1,-1,-1,-1,-1,-1,-1],"loss_changes":[1.2868721E2,2.3689651E-1,1.1663498E1,0E0,3.1844163E-1,7.302993E0,3.383438E0,0E0,0E0,1.4017658E0,3.1848898E0,2.7037506E0,1.9692345E0,0E0,0E0,0E0,0E0,0E0,0E0,0E0,0E0],"parents":[2147483647,0,0,1,1,2,2,4,4,5,5,6,6,9,9,10,10,11,11,12,12],"right_children":[2,4,6,-1,8,10,12,-1,-1,14,16,18,20,-1,-1,-1,-1,-1,-1,-1,-1],"split_conditions":[3.1357804E-1,1.09768525E-1,4.936573E-1,-1.7420098E-2,1.537712E-1,4.0497726E-1,4.08326E-1,4.904058E-3,-1.1467253E-2,3.4117833E-1,3.5113603E-1,3.702996E-1,4.1843998E-1,-8.716515E-3,4.3956786E-3,3.566889E-2,1.3702032E-2,3.0047331E-2,4.7690156E-4,-1.4254713E-2,1.7615395E-2],"split_indices":[4,7,4,0,5,7,5,0,0,5,5,6,5,0,0,0,0,0,0,0,0],"split_type":[0,0,0,0,0,0,0,0,0,0,0,0,0,0,0,0,0,0,0,0,0],"sum_hessian":[3.374461E2,1.8755254E2,1.4989357E2,1.8480443E2,2.748115E0,6.734825E1,8.254533E1,1.035424E0,1.7126911E0,2.7887312E1,3.9460938E1,7.751687E1,5.0284543E0,1.2021959E1,1.5865352E1,7.29541E0,3.2165527E1,7.4593864E1,2.923008E0,2.3285923E0,2.699862E0],"tree_param":{"num_deleted":"0","num_feature":"9","num_nodes":"21","size_leaf_vector":"1"}},{"base_weights":[-1.3322448E-2,-4.0086743E-1,5.154877E-1,-5.5390483E-1,-1.6484031E-1,2.942554E-1,6.9322443E-1,-5.6313825E-1,1.0593438E-2,-1.1204101E-1,-5.5133504E-1,3.250519E-1,-3.940906E-1,7.129359E-1,-9.305497E-3,-1.4499869E-2,-1.9724248E-2,-9.82258E-3,1.0245796E-3,-2.2325108E-2,1.1621285E-3,1.843812E-2,7.6982025E-3,-1.6501158E-2,-1.4736946E-4,2.1746874E-2,-3.991282E-3],"categories":[],"categories_nodes":[],"categories_segments":[],"categories_sizes":[],"default_left":[0,0,0,0,0,0,0,0,0,0,0,0,0,0,0,0,0,0,0,0,0,0,0,0,0,0,0],"id":44,"left_children":[1,3,5,7,9,11,13,15,-1,17,19,21,23,25,-1,-1,-1,-1,-1,-1,-1,-1,-1,-1,-1,-1,-1],"loss_changes":[1.0486372E2,1.0573925E1,8.305614E0,1.6954384E0,2.337337E0,2.2086916E0,2.5800667E0,1.0169792E0,0E0,3.3075435E0,1.6076465E0,1.7149801E0,2.798208E-1,1.2829666E0,0E0,0E0,0E0,0E0,0E0,0E0,0E0,0E0,0E0,0E0,0E0,0E0,0E0],"parents":[2147483647,0,0,1,1,2,2,3,3,4,4,5,5,6,6,7,7,9,9,10,10,11,11,12,12,13,13],"right_children":[2,4,6,8,10,12,14,16,-1,18,20,22,24,26,-1,-1,-1,-1,-1,-1,-1,-1,-1,-1,-1,-1,-1],"split_conditions":[4.09406E-1,3.076282E-1,5.7150006E-1,3.5066915E-1,3.2300994E-1,6.488784E-1,9.986395E-2,7.2009945E-1,1.0593438E-2,2.7947983E-1,3.8711625E-1,9.226762E-4,5.352444E-1,5.6338036E-1,-9.305497E-3,-1.4499869E-2,-1.9724248E-2,-9.82258E-3,1.0245796E-3,-2.2325108E-2,1.1621285E-3,1.843812E-2,7.6982025E-3,-1.6501158E-2,-1.4736946E-4,2.1746874E-2,-3.991282E-3],"split_indices":[5,5,5,1,1,6,4,6,0,1,2,7,3,6,0,0,0,0,0,0,0,0,0,0,0,0,0],"split_type":[0,0,0,0,0,0,0,0,0,0,0,0,0,0,0,0,0,0,0,0,0,0,0,0,0,0,0],"sum_hessian":[5.096775E2,2.9426425E2,2.1541322E2,1.7769923E2,1.1656503E2,9.714747E1,1.18265755E2,1.7628381E2,1.4154251E0,1.0368979E2,1.2875242E1,9.349242E1,3.655056E0,1.1627114E2,1.9946114E0,9.881195E1,7.747186E1,4.1423466E1,6.2266323E1,9.50716E0,3.368082E0,1.6349123E1,7.714329E1,2.3143406E0,1.3407154E0,1.1479142E2,1.4797192E0],"tree_param":{"num_deleted":"0","num_feature":"9","num_nodes":"27","size_leaf_vector":"1"}},{"base_weights":[1.437012E-2,-4.0661153E-1,6.2699276E-1,-5.4879344E-1,-2.4700494E-1,4.0724745E-1,7.8828126E-1,-3.7261134E-1,-6.0043806E-1,-2.8772023E-2,-3.9618066E-1,2.0083647E-2,5.2593696E-1,2.4091383E-2,-1.6243176E-3,-1.7184723E-2,-7.736865E-4,-1.5765224E-2,-2.0318905E-2,-1.3029496E-2,4.8275455E-3,-5.3806705E-3,-1.5051278E-2,7.5756907E-3,-9.962785E-3,-1.1200855E-2,1.7129911E-2],"categories":[],"categories_nodes":[],"categories_segments":[],"categories_sizes":[],"default_left":[0,0,0,0,0,0,0,0,0,0,0,0,0,0,0,0,0,0,0,0,0,0,0,0,0,0,0],"id":45,"left_children":[1,3,5,7,9,11,13,15,17,19,21,23,25,-1,-1,-1,-1,-1,-1,-1,-1,-1,-1,-1,-1,-1,-1],"loss_changes":[1.3154832E2,6.7255287E0,7.0417557E0,1.2237244E0,4.6850185E0,4.125288E0,1.5203552E0,2.6722383E0,3.4313583E-1,4.658732E0,1.8688698E0,1.8976543E0,3.002987E0,0E0,0E0,0E0,0E0,0E0,0E0,0E0,0E0,0E0,0E0,0E0,0E0,0E0,0E0],"parents":[2147483647,0,0,1,1,2,2,3,3,4,4,5,5,6,6,7,7,8,8,9,9,10,10,11,11,12,12],"right_children":[2,4,6,8,10,12,14,16,18,20,22,24,26,-1,-1,-1,-1,-1,-1,-1,-1,-1,-1,-1,-1,-1,-1],"split_conditions":[4.9181303E-1,2.6226076E-1,6.528828E-1,3.6248258E-1,4.9173838E-1,3.6790904E-1,3.2746036E-2,3.5435948E-1,4.0803352E-1,2.4310283E-1,3.771976E-1,3.92578E-1,6.930823E-4,2.4091383E-2,-1.6243176E-3,-1.7184723E-2,-7.736865E-4,-1.5765224E-2,-2.0318905E-2,-1.3029496E-2,4.8275455E-3,-5.3806705E-3,-1.5051278E-2,7.5756907E-3,-9.962785E-3,-1.1200855E-2,1.7129911E-2],"split_indices":[3,3,6,2,8,2,7,2,8,5,2,5,4,0,0,0,0,0,0,0,0,0,0,0,0,0,0],"split_type":[0,0,0,0,0,0,0,0,0,0,0,0,0,0,0,0,0,0,0,0,0,0,0,0,0,0,0],"sum_hessian":[5.0808063E2,3.0134134E2,2.0673929E2,1.580805E2,1.4326083E2,8.900313E1,1.1773615E2,3.769647E1,1.2038403E2,5.8651276E1,8.4609566E1,2.1157343E1,6.784579E1,1.1575412E2,1.982031E0,2.348655E1,1.420992E1,6.492505E1,5.545899E1,1.8280094E1,4.037118E1,2.858233E1,5.6027237E1,1.2915783E1,8.241559E0,2.8896148E0,6.495618E1],"tree_param":{"num_deleted":"0","num_feature":"9","num_nodes":"27","size_leaf_vector":"1"}},{"base_weights":[-1.461788E-2,-5.631782E-1,6.558178E-1,-1.734774E-2,-2.6832822E-1,9.3264747E-1,4.093444E-1,-1.5562766E-2,4.62343E-1,9.483681E-1,1.235808E-3,3.5319993E-1,1.027206E0,-9.835532E-3,3.124861E-2,2.3428172E-2,3.0630043E-2,9.408319E-3,3.676966E-2,4.370136E-3,3.5408452E-2],"categories":[],"categories_nodes":[],"categories_segments":[],"categories_sizes":[],"default_left":[0,0,0,0,0,0,0,0,0,0,0,0,0,0,0,0,0,0,0,0,0],"id":46,"left_children":[1,3,5,-1,7,9,11,-1,13,15,-1,17,19,-1,-1,-1,-1,-1,-1,-1,-1],"loss_changes":[1.23483536E2,6.6584396E-1,9.928291E0,0E0,2.2252138E0,9.4734573E-1,2.4719276E0,0E0,1.8512542E0,4.326248E-2,0E0,2.2556562E0,6.7590666E-1,0E0,0E0,0E0,0E0,0E0,0E0,0E0,0E0],"parents":[2147483647,0,0,1,1,2,2,4,4,5,5,6,6,8,8,9,9,11,11,12,12],"right_children":[2,4,6,-1,8,10,12,-1,14,16,-1,18,20,-1,-1,-1,-1,-1,-1,-1,-1],"split_conditions":[3.1357804E-1,5.598126E-2,2.8574872E-1,-1.734774E-2,5.5839413E-1,3.5916296E-1,3.5777798E-1,-1.5562766E-2,2.1542451E-1,2.8716674E-1,1.235808E-3,4.1468477E-1,4.3142927E-1,-9.835532E-3,3.124861E-2,2.3428172E-2,3.0630043E-2,9.408319E-3,3.676966E-2,4.370136E-3,3.5408452E-2],"split_indices":[4,4,5,0,3,1,0,0,8,1,0,2,4,0,0,0,0,0,0,0,0],"split_type":[0,0,0,0,0,0,0,0,0,0,0,0,0,0,0,0,0,0,0,0,0],"sum_hessian":[3.337547E2,1.8364975E2,1.5010493E2,1.737997E2,9.850052E0,6.9387505E1,8.071743E1,7.551776E0,2.2982757E0,6.8122345E1,1.2651656E0,7.5434425E1,5.283004E0,1.1557492E0,1.1425266E0,2.416676E1,4.395558E1,7.346048E1,1.9739465E0,1.0703999E0,4.2126036E0],"tree_param":{"num_deleted":"0","num_feature":"9","num_nodes":"21","size_leaf_vector":"1"}},{"base_weights":[1.5373962E-2,-3.4520808E-1,4.8658583E-1,-5.416224E-1,-4.4901557E-2,5.830282E-1,4.1760158E-2,-5.507825E-1,1.0347824E-2,-2.153035E-1,7.134313E-2,4.859158E-1,2.5027495E-2,1.4666438E-1,-5.5745506E-1,-4.791454E-3,-1.6998196E-2,5.108772E-3,-1.1330038E-2,7.368835E-3,-7.555805E-3,6.545626E-3,1.6868575E-2,-8.507666E-3,9.194192E-3,-2.0459916E-2,-2.3585823E-3],"categories":[],"categories_nodes":[],"categories_segments":[],"categories_sizes":[],"default_left":[0,0,0,0,0,0,0,0,0,0,0,0,0,0,0,0,0,0,0,0,0,0,0,0,0,0,0],"id":47,"left_children":[1,3,5,7,9,11,13,15,-1,17,19,21,-1,23,25,-1,-1,-1,-1,-1,-1,-1,-1,-1,-1,-1,-1],"loss_changes":[8.779772E1,1.724353E1,9.584751E0,1.6265831E0,2.3299847E0,4.0836525E0,2.6582127E0,9.953995E-1,0E0,3.046657E0,4.017045E0,2.6395912E0,0E0,2.539671E0,3.2296658E-1,0E0,0E0,0E0,0E0,0E0,0E0,0E0,0E0,0E0,0E0,0E0,0E0],"parents":[2147483647,0,0,1,1,2,2,3,3,4,4,5,5,6,6,7,7,9,9,10,10,11,11,13,13,14,14],"right_children":[2,4,6,8,10,12,14,16,-1,18,20,22,-1,24,26,-1,-1,-1,-1,-1,-1,-1,-1,-1,-1,-1,-1],"split_conditions":[4.09406E-1,3.076282E-1,4.8334116E-1,3.5916296E-1,3.6986515E-1,6.8839985E-1,4.1738668E-1,5.31588E-4,1.0347824E-2,3.589286E-1,4.242136E-1,3.0786613E-1,2.5027495E-2,3.5690543E-1,5.322233E-1,-4.791454E-3,-1.6998196E-2,5.108772E-3,-1.1330038E-2,7.368835E-3,-7.555805E-3,6.545626E-3,1.6868575E-2,-8.507666E-3,9.194192E-3,-2.0459916E-2,-2.3585823E-3],"split_indices":[5,5,3,1,7,5,2,4,0,2,7,3,0,0,3,0,0,0,0,0,0,0,0,0,0,0,0],"split_type":[0,0,0,0,0,0,0,0,0,0,0,0,0,0,0,0,0,0,0,0,0,0,0,0,0,0,0],"sum_hessian":[5.1474054E2,2.9175238E2,2.2298816E2,1.7590128E2,1.15851105E2,1.8300113E2,3.998704E1,1.7447725E2,1.4240191E0,4.663588E1,6.9215225E1,1.3409825E2,4.8902874E1,3.4672234E1,5.314806E0,7.2168293E0,1.6726042E2,1.3804068E1,3.283181E1,4.5123028E1,2.4092201E1,3.0618134E1,1.0348012E2,9.180635E0,2.54916E1,3.8810792E0,1.4337265E0],"tree_param":{"num_deleted":"0","num_feature":"9","num_nodes":"27","size_leaf_vector":"1"}},{"base_weights":[-6.743479E-4,-3.8353866E-1,6.018103E-1,-5.976164E-1,-2.7669704E-1,7.015837E-1,1.7209402E-1,-2.7117121E-3,-6.053343E-1,-1.7149015E-1,-4.9531424E-1,5.542248E-1,7.907939E-1,-2.3866743E-1,2.6079744E-1,-1.838899E-2,-5.088701E-3,-1.3107335E-2,-2.0295442E-3,-1.6598234E-2,1.5291959E-3,-7.479776E-3,1.7920345E-2,2.4250388E-2,1.14063015E-2,-2.0292265E-2,6.1546667E-3,1.7650489E-2,2.4070956E-3],"categories":[],"categories_nodes":[],"categories_segments":[],"categories_sizes":[],"default_left":[0,0,0,0,0,0,0,0,0,0,0,0,0,0,0,0,0,0,0,0,0,0,0,0,0,0,0,0,0],"id":48,"left_children":[1,3,5,7,9,11,13,-1,15,17,19,21,23,25,27,-1,-1,-1,-1,-1,-1,-1,-1,-1,-1,-1,-1,-1,-1],"loss_changes":[1.1737873E2,6.9511185E0,8.356422E0,3.474121E-1,4.7316093E0,1.6669083E0,1.4680276E0,0E0,2.3191833E-1,3.9091234E0,2.1656723E0,2.357172E0,3.9465332E-1,1.5714381E0,1.8576798E0,0E0,0E0,0E0,0E0,0E0,0E0,0E0,0E0,0E0,0E0,0E0,0E0,0E0,0E0],"parents":[2147483647,0,0,1,1,2,2,3,3,4,4,5,5,6,6,8,8,9,9,10,10,11,11,12,12,13,13,14,14],"right_children":[2,4,6,8,10,12,14,-1,16,18,20,22,24,26,28,-1,-1,-1,-1,-1,-1,-1,-1,-1,-1,-1,-1,-1,-1],"split_conditions":[5.0142455E-1,1.9722389E-1,4.036124E-1,7.2431125E-2,6.097458E-1,7.2009945E-1,4.2102313E-1,-2.7117121E-3,3.5066915E-1,2.4310283E-1,3.8034502E-2,5.31588E-4,4.3733202E-2,1.693775E-1,4.522028E-1,-1.838899E-2,-5.088701E-3,-1.3107335E-2,-2.0295442E-3,-1.6598234E-2,1.5291959E-3,-7.479776E-3,1.7920345E-2,2.4250388E-2,1.14063015E-2,-2.0292265E-2,6.1546667E-3,1.7650489E-2,2.4070956E-3],"split_indices":[3,3,5,5,5,6,5,0,1,5,4,4,4,1,5,0,0,0,0,0,0,0,0,0,0,0,0,0,0],"split_type":[0,0,0,0,0,0,0,0,0,0,0,0,0,0,0,0,0,0,0,0,0,0,0,0,0,0,0,0,0],"sum_hessian":[5.0685962E2,3.101379E2,1.967217E2,1.0172295E2,2.0841495E2,1.5913936E2,3.7582344E1,1.7151241E0,1.0000783E2,1.4190791E2,6.650704E1,6.2731323E1,9.6408035E1,6.374259E0,3.1208086E1,9.788639E1,2.121439E0,3.9003593E1,1.0290432E2,6.011604E1,6.3910017E0,2.9512963E0,5.978003E1,9.152652E1,4.8815084E0,2.945283E0,3.428976E0,1.0287417E1,2.092067E1],"tree_param":{"num_deleted":"0","num_feature":"9","num_nodes":"29","size_leaf_vector":"1"}},{"base_weights":[1.4492376E-2,-5.713243E-1,6.753355E-1,-1.7290099E-2,-1.1150401E-1,8.922837E-1,4.4440082E-1,4.893556E-3,-9.637661E-3,9.19946E-1,1.879303E-1,-6.461762E-2,5.6730103E-1,1.6313564E-2,2.906586E-2,1.919755E-2,-1.1961331E-2,1.0929478E-2,-7.9145655E-3,7.882297E-3,2.5212655E-2],"categories":[],"categories_nodes":[],"categories_segments":[],"categories_sizes":[],"default_left":[0,0,0,0,0,0,0,0,0,0,0,0,0,0,0,0,0,0,0,0,0],"id":49,"left_children":[1,3,5,-1,7,9,11,-1,-1,13,15,17,19,-1,-1,-1,-1,-1,-1,-1,-1],"loss_changes":[1.306232E2,3.4799194E-1,7.5466003E0,0E0,2.3492545E-1,1.4005356E0,4.965522E0,0E0,0E0,8.981781E-1,1.3975334E0,1.4821053E0,5.066759E0,0E0,0E0,0E0,0E0,0E0,0E0,0E0,0E0],"parents":[2147483647,0,0,1,1,2,2,4,4,5,5,6,6,9,9,10,10,11,11,12,12],"right_children":[2,4,6,-1,8,10,12,-1,-1,14,16,18,20,-1,-1,-1,-1,-1,-1,-1,-1],"split_conditions":[3.1357804E-1,1.09768525E-1,3.076282E-1,-1.7290099E-2,1.537712E-1,3.702996E-1,3.5894787E-1,4.893556E-3,-9.637661E-3,4.5982793E-1,4.9637097E-1,3.6031923E-1,3.7962663E-1,1.6313564E-2,2.906586E-2,1.919755E-2,-1.1961331E-2,1.0929478E-2,-7.9145655E-3,7.882297E-3,2.5212655E-2],"split_indices":[4,7,5,0,5,6,5,0,0,4,4,8,2,0,0,0,0,0,0,0,0],"split_type":[0,0,0,0,0,0,0,0,0,0,0,0,0,0,0,0,0,0,0,0,0],"sum_hessian":[3.354151E2,1.7787233E2,1.5754276E2,1.7570367E2,2.1686623E0,7.975466E1,7.77881E1,1.0353835E0,1.1332788E0,7.644627E1,3.3083913E0,1.5221036E1,6.2567062E1,1.019146E1,6.6254814E1,1.8173586E0,1.4910327E0,4.564203E0,1.0656834E1,3.0508713E1,3.205835E1],"tree_param":{"num_deleted":"0","num_feature":"9","num_nodes":"21","size_leaf_vector":"1"}},{"base_weights":[-1.1762848E-2,-3.485009E-1,5.0576925E-1,-5.4829544E-1,-7.857928E-2,2.916714E-1,6.4092845E-1,-5.5745876E-1,1.0508697E-2,-4.660758E-1,-2.1461511E-2,3.2274696E-1,-1.6096003E-2,6.5930325E-1,-9.508512E-3,-3.887843E-3,-1.7212387E-2,-1.6393455E-2,7.5576256E-4,1.0859714E-3,-1.3050183E-2,9.5246435E-4,1.2554086E-2,2.0128466E-2,-5.016445E-3],"categories":[],"categories_nodes":[],"categories_segments":[],"categories_sizes":[],"default_left":[0,0,0,0,0,0,0,0,0,0,0,0,0,0,0,0,0,0,0,0,0,0,0,0,0],"id":50,"left_children":[1,3,5,7,9,11,13,15,-1,17,19,21,-1,23,-1,-1,-1,-1,-1,-1,-1,-1,-1,-1,-1],"loss_changes":[8.950971E1,1.6736267E1,5.6719513E0,1.6661034E0,2.944979E0,2.2369723E0,2.3787956E0,1.1605988E0,0E0,6.8908143E-1,2.8153489E0,2.1569862E0,0E0,1.2795906E0,0E0,0E0,0E0,0E0,0E0,0E0,0E0,0E0,0E0,0E0,0E0],"parents":[2147483647,0,0,1,1,2,2,3,3,4,4,5,5,6,6,7,7,9,9,10,10,11,11,13,13],"right_children":[2,4,6,8,10,12,14,16,-1,18,20,22,-1,24,-1,-1,-1,-1,-1,-1,-1,-1,-1,-1,-1],"split_conditions":[4.282204E-1,3.076282E-1,5.7150006E-1,3.5066915E-1,3.354515E-1,6.336581E-1,9.986395E-2,5.31588E-4,1.0508697E-2,3.9616182E-1,3.2300994E-1,3.767988E-1,-1.6096003E-2,5.5560994E-1,-9.508512E-3,-3.887843E-3,-1.7212387E-2,-1.6393455E-2,7.5576256E-4,1.0859714E-3,-1.3050183E-2,9.5246435E-4,1.2554086E-2,2.0128466E-2,-5.016445E-3],"split_indices":[5,5,5,1,8,6,4,4,0,4,1,2,0,6,0,0,0,0,0,0,0,0,0,0,0],"split_type":[0,0,0,0,0,0,0,0,0,0,0,0,0,0,0,0,0,0,0,0,0,0,0,0,0],"sum_hessian":[5.1160715E2,3.101386E2,2.0146854E2,1.77628E2,1.3251059E2,7.918853E1,1.2228001E2,1.7621072E2,1.4172852E0,1.6103285E1,1.1640731E2,7.691294E1,2.2755926E0,1.20284325E2,1.9956856E0,6.790288E0,1.6942043E2,1.3742632E1,2.3606536E0,1.0296356E2,1.3443751E1,1.9367405E1,5.7545536E1,1.18798676E2,1.4856453E0],"tree_param":{"num_deleted":"0","num_feature":"9","num_nodes":"25",